0.5290257
0.6007459
-0.31397545
-0.88319075
0.81543136
-0.63551867
-0.39739358
0.23269641
0.52597237
0.12266946
-0.9456749
0.92639554
-0.16933382
-0.95766807
-0.12603593
-0.93200517
0.3951956
-0.02525413
-0.15970635
-0.54655147
0.084483266
-0.44455898
0.23035288
0.7787994
-0.83496356
0.9580046
-0.96451306
-0.30383468
-0.6466235
0.7345722
-0.57372093
0.5790303
-0.8945534
0.1399455
-0.13570213
0.8387433
0.60669076
0.6139319
0.9411143
-0.6111116
0.67368466
0.22412139
0.6371307
-0.73655134
-0.509215
0.86610305
0.15004253
-0.6945069
0.9626043
0.68060637
-0.18080425
0.12955427
-0.9514575
-0.44724095
-0.30832827
0.6345774
-0.73876953
-0.42311966
-0.16864085
0.043150187
0.84738195
0.53399706
-0.5049825
0.13578069
-0.15816367
-0.32963967
-0.50537825
-0.95834196
-0.59817994
0.5841998
0.78208363
0.1699419
0.7095276
0.8127996
-0.9577762
0.18398798
0.80202127
-0.9700824
-0.9717256
0.23037004
0.17985868
-0.5365293
0.64351296
-0.13789356
0.79766405
0.5553398
-0.65860176
-0.1006614
0.79520833
-0.8795525
-0.5804597
-0.4597001
0.23684299
-0.286497
-0.9889717
-0.40855384
0.24697852
0.7528182
0.9773123
-0.019934297
0.72261715
-0.36354077
0.0835073
-0.47127008
0.639858
0.85303426
0.5494298
-0.87694407
0.6252034
-0.54479015
-0.2661004
0.2381202
0.6160369
0.5274221
-0.10189009
0.6814507
-0.8242918
-1.1796777
-0.26525873
-0.9299355
-0.8485696
-0.29574424
-1.1726089
-0.2753691
0.06771523
-0.34357488
0.46215975
0.8075516
-0.75768626
0.06230998
0.44428563
0.15266538
-0.19436216
-0.11008513
0.6345043
-0.6309713
-0.7790321
-0.32979655
0.22046494
-0.08734906
0.96519387
-0.6453372
-0.657475
-0.097714186
-0.9315437
-0.42645037
0.4262153
-0.86123836
0.56712997
0.41324222
-0.088692784
0.22723854
0.83944464
-0.31909025
-0.35418904
0.08898342
0.9183681
-0.57834506
0.12305987
0.0041201115
0.5684954
0.6712532
0.22860193
0.20133007
0.9355099
0.02166748
0.33443296
-0.81214213
-0.20252979
0.28301513
0.4909354
0.6078567
-0.057907417
-0.63784814
0.037754178
0.2748108
0.14501035
0.24336886
-0.7440032
0.021435142
-0.7814268
0.730935
-0.5558747
0.55628264
-0.8667568
-0.74230325
-0.09654415
0.049747705
-0.8155513
0.72124135
-0.2926644
-0.936067
-0.20649338
-0.096930385
-0.5019293
0.49294347
-0.19515473
-0.43806976
-0.9388949
-0.2745555
-0.007942975
0.55591184
-0.6237913
-0.35440558
0.23904103
-0.59196013
0.407879
-0.5557928
-0.051932693
-0.36744523
-0.80880153
0.4512949
0.28702736
0.21898925
-0.22302485
0.3760476
-0.9385768
-0.5662309
-0.14573693
-0.45335746
-0.16044998
-0.656698
0.5587771
-0.40539706
-0.07765865
0.7560736
0.052920103
0.78382254
-0.69951034
-0.91567063
-0.47216427
0.62280846
0.24663067
-0.82840145
-0.9088416
-0.86400115
-0.7736385
0.73955536
-0.21836615
0.3515345
0.85993195
-0.12501335
0.06583989
-0.63439023
-0.3854537
0.2850845
0.8513466
-0.32431543
-0.25052238
0.058206365
-0.52039415
0.27587676
0.17301059
0.22024925
-0.6183573
0.74845886
0.6082461
-0.1023258
0.28752685
0.7675209
-0.48309886
-0.90791273
-0.06987691
-0.912269
0.21556604
-0.5755484
-0.91547066
-0.7128362
0.5628169
0.8870438
0.6030032
0.8641805
0.42985895
0.5971347
0.46300647
-0.81904733
-0.9704411
0.40744016
0.022262795
0.1591302
-0.88654935
-0.5918076
0.10431133
0.55592287
-0.4959233
-0.4576445
0.5099973
-0.19976647
-0.034484584
-0.77112085
0.31620064
-0.49532363
-0.0046752263
-0.4012513
0.38062337
-0.43223426
-0.99023217
0.8334715
0.486658
0.961994
0.27272525
-0.42517826
-0.15485997
-0.89249426
-0.63732
0.6425801
0.29752508
0.039693754
-0.4254373
-0.56156176
0.26302436
-0.20273657
-0.09498604
0.08736341
0.9266009
0.82597303
-0.12750232
0.5164635
-0.28382707
0.48262453
-0.016090035
0.019171357
-0.73691046
-0.2636999
0.1901573
0.40484834
-0.86618376
0.43169177
-0.7070823
0.37617773
0.17173374
0.56834626
-0.49988377
-0.2221766
0.6632586
-0.7520597
-0.19736767
0.061057687
-0.93682027
-0.5602145
-0.5391396
0.10403633
0.6594975
0.8883549
0.10857706
-0.7550612
0.46256247
0.77761775
0.7060924
0.5704183
0.55813223
0.0795062
0.34451434
0.41157672
-0.48397353
0.07952808
-0.83847487
-0.93045807
-0.5212472
0.8583918
0.42889765
-0.057572085
0.2339348
-1.1181648
-0.4607016
-0.47659102
-0.31333354
-0.6284484
-0.4435905
-0.99528867
-0.25672743
-0.7533588
0.74913996
0.6977766
-0.80725604
-0.37438998
-0.31070122
0.114505336
-0.09597297
0.11882751
-0.5356299
-0.99769694
0.2661431
0.27720538
-0.9628201
0.6980651
0.34446064
0.10624628
-0.5055148
-0.4223903
-0.8552858
-0.46616957
0.2810631
-0.59116226
0.6777645
-0.99863917
0.34190205
-0.36159337
0.5497415
0.5264877
-0.6761627
-0.3987069
0.3859253
0.08850551
0.75729525
-0.029216409
-0.18860686
-0.8267976
-0.306808
-1.1263574
0.591035
0.97107565
0.2590419
1.0753163
0.5620087
0.9670794
0.7735896
-0.6406752
-0.12448909
-0.6951436
0.4451178
0.7021011
0.6867797
0.3555949
0.8628289
-0.46673712
0.52226096
0.43782678
-0.49913904
-0.5582146
-0.53770906
-0.8516199
-1.0447044
-0.9773681
0.34300455
0.1341971
-0.80562854
0.29596734
0.87196845
-0.87091404
0.6985865
0.023583813
-0.60191005
-0.9070842
-0.35526314
-0.2483976
-0.5448867
0.64362484
-0.16115446
0.51180845
0.071039364
-0.07580502
0.312521
0.0616347
-0.92751116
0.14540891
0.8399771
0.6697543
0.31941846
-0.66493493
-0.28964993
-0.6178178
-0.18148632
0.64981014
-0.08327015
-0.4705226
0.17321853
-0.7462248
0.021180911
-0.44833443
-0.60759896
-0.78069645
-0.3810998
-0.110623434
-0.16533966
-0.4261112
-0.7762024
0.70891315
0.6833589
0.46645296
-0.54875946
0.83171403
0.7754152
-0.29906225
0.038041353
-0.1263231
0.2486124
-0.6305921
-0.11552143
0.3037749
-0.91337866
0.8240894
0.70280325
0.621061
0.039074734
-0.70131123
0.88789
0.61832535
0.4033272
-0.2439287
-0.9621924
0.39086536
-0.21512361
-0.3085197
-0.1421227
0.44015697
0.059351668
0.06738208
0.13397186
0.70891446
-0.18112202
0.2052223
0.04851119
0.37419692
-0.7477477
-0.33066723
-0.89004797
-0.51797247
0.09993915
0.5456198
-0.44073248
0.2077536
0.64689475
0.90361613
0.85598505
0.75482357
0.28977093
-0.8140651
0.2928259
-0.9307554
-0.20962746
0.34596494
-0.803016
0.11852734
0.2905307
0.62744755
0.8150669
-0.5701149
0.8094533
0.78225106
0.637454
-0.46440753
0.8183026
-0.1513619
0.88194364
-0.33081588
-0.40849492
0.6540888
0.21882443
-0.8962582
0.80002934
-0.4172444
-0.021922069
-0.38334057
0.42054406
0.09120135
0.11420278
-0.6802471
-0.85488695
0.5567913
-0.9614357
0.17063963
-0.8454021
-0.628831
-0.35522473
-0.045298934
-0.10631156
-0.04474032
0.7439178
-0.14165647
0.04159014
0.010817409
-0.40704024
0.28544432
0.95003563
0.20236178
0.2431413
0.41860175
-0.6882702
-0.16044012
-0.47653544
-0.5383609
-0.85753864
0.3182434
0.5080774
0.22459756
-0.4624788
0.112753615
-0.7077887
-0.851399
-0.58325547
-0.47433087
-0.3197318
0.3392432
-0.7986581
-0.22335789
-0.43338513
-1.1038698
-1.0716559
-0.42823565
-0.15961261
-0.4475275
0.6840684
0.7246262
1.1354719
-0.66590875
0.65422326
-0.123778716
-0.8761953
0.59536314
-0.042174343
-1.1405694
0.39378837
0.5248831
-0.9275494
0.47538367
0.73653775
0.0015616843
-0.51090974
-0.14843543
0.9816286
-0.20272346
0.9262677
-0.04570206
-0.60575086
0.5167127
0.71329147
0.14819317
-0.7158852
0.5760489
-0.22342844
0.57573056
-0.5935117
-0.73227483
0.33770195
0.43165806
0.16387074
-0.4204882
-0.2583091
-0.86495143
0.5831249
0.21872199
-0.031030178
-0.12465739
-0.52323127
0.13542879
0.19911015
0.81989765
-0.52226055
-0.1713589
-0.102346614
0.13314955
0.8374795
-0.17668359
0.1552703
-0.37435514
0.8899287
0.6676383
0.4378979
1.1699327
-0.53761476
-0.2894976
0.24723059
0.20118855
-0.6422004
-1.0895547
0.7985282
-0.42695776
-0.2887793
-0.96308774
-0.06766093
-0.5668776
0.6419064
-0.29525998
-0.28468838
-0.45696682
-0.6029286
-0.26714143
-0.30048662
-1.0729715
-0.76194364
-0.04299647
0.13544728
-0.12185277
0.7762855
-0.55922234
-0.87209517
-0.33082032
-0.38291338
0.3793125
-0.52972424
0.29605874
0.0943346
0.7524724
0.45622304
0.668148
-0.307896
0.28040007
-0.3803695
-0.32085702
0.41761675
0.0036943383
-0.8681161
-0.18834014
0.8843935
0.4153897
0.3271319
0.48969403
0.11523192
-0.422515
0.614575
0.55920076
-0.86756
-0.7161324
0.18553786
0.41619554
0.27913228
-0.24823518
0.33249083
0.24411897
0.07503641
0.43786442
0.40629268
0.9114053
-0.4919864
0.13000095
-0.8155519
-0.26632297
-0.49786222
0.13176946
0.4911204
-0.13858147
-0.116878375
0.576209
0.2484513
-0.10745196
0.69932073
1.0039103
-0.086245224
-0.10018937
0.92984486
0.05995938
-0.87353826
-0.756111
0.6460255
-0.7481746
0.8246638
0.040403455
-0.7214476
0.8293624
-0.5174335
0.28052542
0.022778152
-0.7204729
-0.8355787
-0.12029137
-0.49134505
0.2861994
0.13148277
0.3545044
-0.05020304
-0.043290168
-0.23212256
0.17124338
1.2311883
-0.35080135
0.7476273
-1.1770914
-0.88411534
0.76872087
0.38607427
0.42339894
-0.64351666
-0.28138164
-1.1658998
0.06887925
-0.14329858
0.7652176
0.34526053
0.6197702
0.44779888
0.8718783
0.5162855
-0.32223198
-0.008830147
-0.65956944
-0.89994663
-0.89702946
-0.32172212
0.51465064
0.058138117
0.45843443
-0.844203
-0.30689445
0.74626225
0.6263756
0.48351648
0.35425678
-0.45317265
-0.0220259
0.24191713
0.6787883
-0.4589646
0.06492138
-0.27590156
-0.6589899
-0.788314
0.87785566
-0.2982874
-0.071156815
-0.40445548
0.24837069
-0.3298536
-0.79407257
0.63566786
-0.23869704
0.096401945
0.7089945
1.0095847
0.48939118
-0.37306976
-0.01600048
-1.1805925
-0.7815601
-0.272965
-0.062331013
-0.2540098
-0.03866175
0.0025728657
-0.05625929
-0.35105437
-0.3782993
0.3029264
0.49584273
-0.95897794
-0.5140588
0.12994932
0.046937943
-0.74169487
0.28374255
-0.89535975
1.0063347
0.67363894
0.2612074
0.018765002
-0.12501489
-0.41567355
0.39775378
0.5558836
0.25007102
0.23801887
-1.0568037
-1.0253893
0.56105924
-0.55079234
-0.7650404
0.7212155
0.10013819
-0.7465511
0.95799166
-0.14194877
-0.87940294
0.11444919
-0.875241
-0.7168258
0.17504124
-0.9376704
0.89518064
-0.07098265
0.5878301
-0.2622762
-0.9462867
0.124870166
-0.19611551
0.8334964
-0.78232664
0.4479492
-0.42928335
-0.2356083
0.96530944
-0.4968084
-0.00807488
-0.4512384
-0.16346753
0.46594512
-0.95933807
-0.9566113
-0.35899365
-0.5517154
0.06167595
-0.13365157
-0.70381075
-0.14283212
0.6110759
-0.42673606
0.94084644
0.9680547
0.8681139
-0.8654333
-0.35058802
0.67895424
0.7332126
-0.58903885
0.5958526
0.02870686
0.059075836
-0.011463277
0.108729295
0.8521111
-0.30571648
-0.40694338
-0.21401456
-0.0119678695
-0.6115074
0.38804606
0.27259552
-0.010364361
-0.17296678
-0.6208472
0.49417964
-0.20477337
0.56032085
0.41126198
0.089889705
-0.3958196
-0.8025692
0.074049585
-0.4586985
1.1888922
-0.5016626
0.18345869
-0.025410296
-0.68878937
0.15902722
0.4171655
-1.1067901
-0.48872748
0.2711167
0.2543129
-0.35447565
0.7484332
-0.81460804
0.69693595
-0.38815352
-0.4035916
-0.9489042
-0.68154925
0.16116314
-0.45227346
0.3535011
-0.4540024
0.06805359
-0.12103523
-0.49955264
-0.30089578
0.017066283
-0.30265626
-0.6731444
-0.320659
0.9050204
-0.7332003
-0.30180347
-0.56422377
-0.72987354
-0.061782002
-0.56122136
-0.24597895
0.8462136
0.26290047
0.53450924
0.082738325
0.56563157
-0.8760016
-1.1218822
-0.053067252
-0.62852395
-0.8307815
-0.45350462
-1.0499146
0.101706
0.33413365
0.28186652
0.40830752
-0.8829609
-1.0776346
-0.8311041
0.5600996
1.3550804
-0.02372663
-0.066865385
-0.015656697
0.9709875
0.14151812
-1.0774568
0.018921534
-0.29600224
-0.13593778
-0.29032606
-0.0040373653
-0.9650049
1.1378884
0.81283635
0.8341337
-0.06713964
0.6206352
0.025711983
0.5426718
0.7859384
0.028955294
0.2724473
-0.06315297
0.8614546
0.547859
0.7021063
0.34304544
-0.25569072
-0.8210919
0.18325132
0.1754337
0.15518874
-0.55367774
0.8790483
-0.20850201
-0.35956332
0.6205403
-0.2690489
0.4296024
0.12029664
-0.7550333
-0.54506487
-0.477904
0.2171577
-0.4594387
0.36353073
0.6935641
-0.3060114
0.5013961
-0.11788781
0.26831737
-0.43236908
0.701125
0.19624388
0.22934425
-0.7792244
0.14021933
0.73920405
0.56472623
0.07312083
-0.49616265
-0.23265131
-0.3177784
-0.6836564
-0.7399304
-1.1818871
-0.08041632
-0.6499608
-0.57344496
0.83674
-0.399826
-0.14552613
-0.041684195
-0.43341577
-0.1296838
-0.6308587
0.21167304
-0.44972885
0.7669385
-0.6676855
-0.49119085
0.6439816
0.15657187
-0.5362985
-0.65799385
-0.13137282
0.19702499
0.008871163
0.06824923
-1.6705728
-0.7301029
-0.22207154
0.82634676
0.9369945
0.4477871
0.88418216
-0.5518182
-0.7606089
0.75808126
-0.7978662
-0.13473709
0.1331334
0.53005165
-0.35704604
-0.086651236
-0.29157045
0.303978
-0.23950005
-1.1502715
-0.15339142
-0.23547882
0.4375148
0.5109729
0.6490631
-0.43513134
0.9064359
0.866633
-0.49303767
0.4129651
-0.87561995
-0.10390814
0.622451
0.31580135
-0.11453523
0.53974605
-0.6558895
-0.6248072
0.29371098
0.9573956
-0.71129197
0.48251686
-0.82346666
0.614957
-0.51732874
-0.9262085
0.80150795
0.9770813
-0.21382332
-0.8281187
0.23888695
-0.036576867
-1.1525307
0.28303868
0.7674127
-0.95318747
-0.057575464
-0.33404475
1.1166033
-0.42421144
0.54496837
0.7000294
0.9263087
0.10518101
0.5445821
0.19564328
0.5174485
-0.008340791
-1.5558138
0.15140031
-0.9264958
0.87508446
1.250571
0.024336604
-0.8063331
0.30451244
-0.71814835
0.69833595
-1.5080192
-0.6691328
-1.3131095
-1.6748312
-0.28817415
1.0957075
-0.7009042
0.42307884
-0.8025463
0.2634516
0.90602165
-1.2851939
0.19120026
0.105259
0.47184858
0.65785384
0.22635949
-0.85318804
-0.40621915
0.067527205
0.04108008
-0.6898247
-1.1057837
0.2991213
0.27296522
0.33440247
-0.016327145
-0.91495585
0.16381288
0.6491564
0.59526044
-0.19685145
-0.9244049
-0.7376947
-0.455116
0.8017397
0.5923617
0.45370635
0.21656702
-0.23665847
-0.077788666
0.27267215
0.5693799
-0.5147165
-0.41573575
0.5782951
-0.13813663
0.1778034
-0.95202506
0.80906975
0.4022287
-0.36026287
0.102117896
-0.24352002
0.5056512
0.3898235
-0.23277672
-0.35895026
-0.77470624
-0.6825941
-0.5812442
0.56666744
-0.9442521
0.40113014
1.1354177
1.5569956
1.3466766
0.3266041
0.48486492
0.06090124
0.43180856
-0.83234465
1.0129786
0.18816866
0.07945305
1.1635368
0.87210274
-0.17326446
0.5925194
0.3361234
-0.6930652
-1.7533557
-1.0825098
-1.6249917
-1.2987859
-0.44537997
0.29652125
-0.13294868
0.28226823
0.85601074
0.64751863
-0.4391465
0.41906992
0.24363005
-0.64202935
1.1811552
0.8131293
-0.7109976
-0.2714743
-0.54713297
-0.212883
-0.58899486
0.0632964
0.695768
-1.1940725
0.3502958
-1.1821907
0.7843714
-0.5865215
0.015094517
-0.49964473
-0.27892837
0.09361546
-0.443925
0.7138348
-0.08608295
-0.087381974
0.044101104
0.53783214
0.93203807
0.8714011
0.7556535
-0.03348209
0.7526319
0.15497278
-0.083186984
-0.1780591
-0.94176865
0.34007633
0.19680977
0.019177556
-0.5725404
-0.1461662
-0.61679137
-0.95629007
-0.022196844
-0.33832425
-0.5322197
0.7092886
-0.065144464
-0.33365235
0.7678483
0.25857612
0.57533634
-0.31755114
0.2248902
0.732476
0.9378607
-0.8834455
0.9869578
-0.079030685
-0.2417264
-0.54165405
1.074621
1.1296935
-0.076717116
-1.1526363
0.62325317
-0.104479544
-0.52058846
0.089732505
-0.5407091
-0.6245649
-1.4290447
-0.2563941
0.32852703
-0.425983
-0.43551594
0.83405334
0.79480714
-0.45378926
5.690644E-4
-0.9505175
0.49500433
0.042219505
-0.48449427
0.9458686
0.05948776
0.07175119
0.889449
-0.3984288
0.583153
-0.04039959
-0.684942
0.7507018
-0.6441683
-0.70829064
0.44375452
-0.6684549
-0.54704154
-0.6728733
-0.6043989
-0.02907713
0.6087238
-0.15774329
0.27090427
-0.9848926
0.37511966
0.339079
0.6364802
0.9749379
-0.47956195
0.11136006
-0.13910927
0.7710185
-0.28720903
0.5534165
-0.9742788
0.6196059
0.10024667
-0.29622984
-0.3791182
-0.5404655
-0.85067767
-0.060116127
0.15084998
0.649833
0.32990777
-0.6979443
0.031104594
0.5916073
-1.1260662
-0.8198604
0.5959317
0.8324036
-0.15184712
0.069610536
0.7645627
0.52542865
0.50629854
0.35274446
0.35206157
1.4268285
0.8370693
-0.2455405
-0.13663337
-0.53271735
0.43593943
0.28779885
-0.86290216
-1.3925989
-1.5597767
-1.0859628
-0.009658113
-0.026573688
-0.9392645
0.22060922
1.0506445
0.13268428
-0.33622992
-0.3422074
1.1333351
1.1297896
-0.056007996
-0.69767344
-1.0901843
-0.5065359
-0.46458176
-0.1732469
0.7769271
-0.7432118
0.3334396
0.3422445
-0.042284515
-0.9416956
-0.6446414
0.91078424
-0.4817089
0.3510295
-0.28548
0.51676494
0.08326177
-0.54460555
-0.1019965
-0.04105111
-0.33801642
0.48387656
-0.6049576
-0.72348094
-0.82842875
0.48077402
-0.5834267
0.4686863
0.2788683
0.87504965
-0.5546696
-0.91288674
-0.6425251
-0.05702007
0.28915572
-0.82045686
0.9392806
-0.0835731
0.026244923
0.35863918
-0.43130034
0.4160555
0.34279042
-0.38289958
0.6627705
-1.1035478
-0.86477244
0.590323
0.8230565
1.0139768
0.35821223
1.1280767
0.053355843
-0.30286175
-0.36837018
0.46531412
-0.9328126
-0.25229612
0.4748946
-0.034688186
-0.441508
-0.37999526
-0.57771075
-0.3941631
-0.72790444
0.16812578
0.29993096
-0.51596797
0.36906692
-0.14353773
0.3984124
-0.94007605
0.9293868
0.021428257
0.45622128
-0.10067721
0.9832758
0.22230314
0.29940337
1.0181415
-0.47543794
-0.8234241
0.9279939
0.8394512
0.62437534
-0.36644787
-0.75207686
0.64156574
-0.7527473
-0.8665594
-0.96617055
-0.5375205
-0.47539648
-0.48894104
-0.81792206
-0.016775327
0.8313307
0.89922243
-0.80653304
0.78031933
0.9645704
0.5856272
-0.13588597
-0.5321318
-0.8450999
-0.7666161
-0.8110565
-0.09414108
-0.013786988
-0.038376648
0.4026637
0.5279082
-0.8975408
-0.59188855
0.22301114
0.94646084
0.5874908
0.08987522
-0.66581553
0.29145724
-0.16135402
0.32768887
-0.7979756
0.010189713
-0.38785097
0.1908183
0.5714464
-0.61746824
0.7566531
-0.7732095
-0.06844233
0.21138874
0.5562662
0.22076824
0.97104263
-0.3807769
-0.37518188
1.2392462
0.1920114
-0.45605725
-0.8776715
-1.0180025
0.38664293
-1.0548742
-0.2275403
-0.82369435
-0.7567158
-1.5391272
-1.1441871
0.14953773
-0.8139548
0.32135975
0.77333444
-0.5518519
0.40062818
0.14676657
-0.5636242
0.21047151
-0.63140094
0.1252561
0.7296766
0.15251875
0.4176369
0.15370479
0.28714094
0.08076343
-0.62842625
-0.050764196
0.093811244
-0.61001694
-0.13291839
-0.66194534
-0.08953187
0.4876459
0.9140677
-0.87324625
0.029627247
0.31303617
0.07725738
-0.537853
-0.4367787
0.64766955
-0.98845685
-0.25895634
-0.5693563
-0.54817617
-0.6230622
0.7377718
0.23692171
-0.56485635
0.49937165
0.3608638
0.96437156
0.99449265
-0.8419715
0.09989512
-0.4763322
0.29313767
0.1308953
0.5551658
0.5670256
-0.8126358
-0.40983963
0.46240333
0.8788099
0.06288348
0.33188817
0.2377217
0.31012455
-0.08271317
0.77939826
0.32539418
0.32474497
0.29063293
-0.05767323
1.0199094
0.08337024
0.55041367
0.98988533
0.71601087
-0.95735544
0.018416176
-0.28414956
-0.20412196
-0.29170758
-1.8246775
-0.75293076
0.10734579
-0.36276874
-0.18312581
0.9822495
-0.52942604
0.33773172
0.59393656
-0.6422717
0.18673265
-0.7128846
-0.6459204
0.78162885
-0.32040375
-0.69683903
-0.7913399
-0.3613289
0.5694581
-0.047803745
0.10893014
0.5764807
0.99817306
0.23546383
0.43498382
-0.62225807
0.6129732
-0.27367124
-0.47990796
-0.79817075
-0.29913452
-0.8038819
-0.6345488
-0.90071034
-0.67000496
-0.15945794
0.71041334
0.80444074
-0.47834435
-0.21049096
-0.1061504
0.95935136
0.10198562
0.29121807
0.24430399
-0.36868083
0.30630934
0.20767987
-0.6444528
0.73919237
0.9505075
0.21301329
0.07445197
0.688942
0.37437648
-0.734194
-0.5709842
-0.7667558
-0.13801832
0.8024312
0.42571685
0.46253046
-0.22503531
-1.4315168
-0.43269068
-0.5415768
1.0739932
-0.09166766
0.9795203
1.0537767
0.764488
1.3025255
1.0667231
0.47469875
0.2670765
-1.0669422
-0.9021463
-0.33432582
-0.6810956
-0.76866937
-1.4231195
-1.0053835
-0.09509515
0.75822604
1.1312281
-0.22010155
1.1040871
-0.30533856
0.34194613
-0.30131686
-0.42376167
-0.061906572
0.4785176
0.46206766
0.038544893
0.095633164
-0.44708934
0.15279514
0.525607
0.72813976
-0.5091214
0.90623915
0.16710526
0.5517603
-0.53043807
-0.65615577
-0.4634504
0.91997474
-0.35291514
-0.42984894
-0.9895185
-0.05718662
0.36419973
-0.17827286
-0.3062829
0.81030667
-0.8813488
0.2115085
-0.91414523
-0.2999722
-0.30503848
0.25554928
-0.98826617
0.43223432
-0.7899961
-0.79887533
-0.29956448
0.032043457
-0.8976841
-0.16491783
0.046598077
-0.5622262
-0.42446798
-0.8557245
-0.22540934
-0.19041164
0.5464457
-0.5871137
-0.66361344
0.43586615
-0.4183017
-0.7992105
0.05424313
-1.0696774
-0.044506937
0.5227458
0.17197278
1.0246974
-0.84624827
-0.36670613
1.0416163
1.1460726
1.1916982
0.88031024
0.6540799
-0.39165846
-0.36322793
-0.8988652
-0.5177126
-0.8585868
-1.3889318
-1.7399095
-0.97306275
0.68879205
0.13652629
0.98417205
-0.099649444
-0.025148839
-0.3811583
-0.8823084
-0.15413746
0.45395043
0.65040314
-0.8016309
0.074997924
-0.6925446
-0.15306096
0.5120226
-0.8059441
0.09474203
-0.04505506
-0.56188416
-1.2272761
-0.45598918
-0.003976524
0.4682722
0.78271294
0.3737755
-0.8336445
0.65556467
0.4148973
-0.43564263
-0.23821642
-0.48555306
0.3449029
-0.53670436
0.2145329
-0.65570784
-0.59490156
0.74651587
0.671438
0.08799015
-0.058923736
0.090719745
-0.54036194
-0.053026795
0.87796354
-0.6395682
-0.38246143
-0.12669241
-0.29951835
-0.76617205
0.12553756
-0.50106424
0.5125385
-0.3616628
-0.55616105
-0.15797368
-1.0141954
0.4894561
-1.0922797
-0.49798697
-0.7231346
-0.9164768
0.11369708
0.71270984
-0.6215779
0.2696108
-0.88132167
0.08700611
-0.28222606
-0.5799546
-0.046823174
-1.559803
0.076144464
0.80727386
1.2617993
-0.55140066
-1.0381056
-2.4429138
-1.1825612
-1.8562738
-0.3719628
-0.71591854
0.13839471
0.99833006
0.02040635
0.4392969
0.22023572
-0.91981727
0.7803256
-0.80001014
0.7897928
-1.2211272
0.21691033
0.2670058
-0.11386888
0.8059257
0.41110054
0.90949047
0.39042494
-0.085311286
0.20270589
0.4922509
0.020171583
0.71673024
-0.48665714
-0.4937602
0.53331655
0.2922959
-0.38398734
-0.8014958
0.22199683
0.7565884
0.83882743
0.8950011
0.79920346
-0.14099677
-0.69060063
0.9690107
-0.6235795
-0.28607884
0.29376277
0.39672777
0.8820171
0.7075881
-0.4665475
-0.5137484
-0.060807705
-0.5656327
0.62045574
-0.67582804
-0.7654193
-0.13930638
-0.22969039
0.4011503
0.29792273
-0.8873963
0.0700389
-0.9330489
-0.35594854
-0.27301234
-0.83423287
-0.0282816
-0.4975382
-0.2989738
0.26725233
0.6592233
-0.03441806
-0.12657557
0.6314238
-0.29842815
-0.36521348
-1.3188429
0.5838255
0.30876023
0.6125265
0.59573317
0.2424922
-1.8597075
-1.1241479
-1.03248
-0.31847584
0.72933084
0.215565
-0.7058006
1.0356718
0.28651506
0.3449459
0.319011
0.7851127
0.2149202
-1.0731785
0.67579484
-0.13829482
-0.72478807
-0.60681295
-0.43001652
0.5773779
0.84049505
-0.5882251
-0.5792006
-0.3773638
0.60849047
-0.14986399
-0.16779295
0.60589147
-0.044746265
-0.19132765
0.44275585
-0.29432592
-0.9989225
-0.21361966
0.70199984
-0.8348209
0.78842086
0.523287
0.5005607
0.1958112
-0.19950141
0.69811475
0.5367727
-0.39534476
0.97995424
-0.98302084
-0.7438297
-0.46219337
0.5247954
0.7525517
-0.63825643
0.74992096
0.31961685
0.65083057
0.302442
-0.66015774
-0.76361734
-0.9820867
0.22279659
0.40013865
0.58141905
0.90045995
-0.27434018
0.7653661
-0.43158543
0.3195539
0.58970505
-0.33771688
-0.5498345
0.8214979
1.071931
-0.25748456
0.46544328
-0.890741
-0.4539992
-0.5386878
-0.6142614
0.9874194
0.35767117
-0.4140728
-2.239013
-0.4428464
-0.84094715
0.2313665
0.95322925
0.72650516
0.3821771
-0.65514493
0.7196899
1.1981292
0.6088875
0.09448603
0.32588008
0.5267925
-0.7406374
0.34632674
0.83284134
0.6817918
1.0994633
0.04752405
-0.12988298
-0.039619803
0.5702807
0.9325297
-0.73493826
0.60788107
0.033542845
-0.103349715
-0.63281226
-0.92415136
0.1013128
0.44869128
-0.7192753
-0.81761295
-0.7308907
0.905253
0.31837466
-0.12681039
-0.8254277
-0.9924483
0.7967442
-0.710834
-0.89765
0.82914805
-0.6638702
-0.70643663
0.8361218
0.18654513
-0.885676
-0.9701686
0.14604354
-0.08478153
-0.7429884
-1.1547204
0.22415273
-0.47566992
0.5834335
-0.3032203
-0.8086916
-0.41339162
0.061048463
-0.9058251
0.049344774
0.031174883
0.7765639
0.7470325
1.7929116
-0.23611139
0.11692387
1.4587547
-0.4688684
0.5597013
1.1185718
0.24499337
0.45539507
0.9744713
0.45772055
-0.2664733
-0.5657542
-0.45142174
-0.8938613
-1.3023294
-0.5229303
-0.10633664
0.5778219
0.105358385
-0.6049899
-0.56587803
-0.4223528
-0.52761954
1.0385203
0.6871305
-0.89389914
-0.6578788
-0.49913442
0.10883977
-0.014530593
1.1031219
0.62854904
0.76340556
-0.04340765
1.2930236
1.3155447
-0.28512806
0.2507465
-0.07563929
-0.5818198
-1.0086218
-0.5906732
0.73551947
-0.1917711
-0.21919377
-0.9585046
0.8084398
0.009153767
0.48007908
0.050564807
-0.08388026
-0.5738097
0.71323305
-0.14577027
-0.38372448
-0.611202
0.56924057
-0.41634336
0.031969532
0.53136337
0.356398
-0.687906
-0.64352524
-0.15899801
0.38374412
0.7453011
0.38823324
-0.1997931
-0.31688905
-0.4785014
-0.8606845
-0.73286164
0.49514028
-0.6081906
-0.26669958
-0.27633777
-0.5405313
-0.5325642
-0.9485701
0.6695754
-0.12432431
0.24625604
1.8304334
-0.040603325
0.5802939
0.33715793
-0.448853
0.9509098
0.09313014
1.1083918
-0.2582776
0.47692606
-1.5360863
-0.054613177
-1.9373308
-1.0086807
0.75094396
-0.15661208
0.62652045
0.1373012
-0.7794323
-0.26287657
0.28289074
0.44094393
-0.7607395
-0.55294603
-0.2949543
0.25384808
0.66358006
1.0267601
0.20377314
0.21252121
-0.49605912
-0.6652277
0.7398805
0.05403045
0.31434748
-0.13289633
-0.43501717
-0.79585123
0.30690727
-0.9731922
-0.9046362
-0.0974967
-0.005702572
-0.12532456
-0.5621448
-0.08651061
0.58988494
-0.09546991
0.46808115
-0.2884371
0.008885188
-0.88964874
-0.08068748
0.89795744
-0.41101125
-0.07210566
0.1204599
0.104058385
0.5467882
-0.86935365
0.48314917
-0.730844
-0.06609523
-0.9102646
-0.41841495
-0.8050841
0.44658652
0.33048376
0.8576262
-0.45790127
-0.43774548
-0.25170133
0.75931966
-0.28417256
-0.6701987
0.61945635
0.7851966
0.097803205
0.46854335
0.62515825
0.87165475
0.8608942
0.6975007
-0.34724423
-1.1468627
-0.42593652
0.23270881
-0.17025706
0.8101486
-0.09017699
-1.1058683
-1.4993434
-1.1237444
-0.5291879
-0.93362457
-0.6562909
-1.0701417
0.81973994
0.68539417
-0.8084337
0.37720546
0.6939052
0.8630165
-0.87181
0.752491
-1.0252655
0.24547917
0.7259364
0.4308743
0.7483493
0.4319505
-0.8623809
-0.46292537
0.29948527
0.9114309
-0.625389
0.056210205
-0.49913785
-0.37740022
-0.12296489
-0.8322404
-0.8506593
-0.40930733
-0.35189888
-0.82046896
0.916629
0.44664863
0.7509982
-0.15109713
0.34352985
0.4722431
-0.7759051
-0.13218053
-0.4438809
-0.52929556
0.65456927
-0.21466573
0.43255794
0.2827654
-0.34033573
0.14251399
-0.22499418
0.53847766
-0.33546054
0.81094193
-0.07096088
-0.6721863
-0.52963936
-0.97722685
0.274165
-0.6782069
0.5598245
-0.8349098
0.73473936
0.297295
-0.6706009
-0.03851047
-0.45721537
1.7786213
0.25216675
1.2577667
0.5963346
1.2982413
0.04311685
-0.984842
0.862143
0.021538049
-0.58230025
-0.8120427
-0.06947288
-0.3925088
-0.25496167
-1.3566192
-1.4429933
-0.3729332
-0.4819284
-0.42574978
-0.32736295
-0.9814654
0.44006118
0.6865929
0.8272494
-0.82245046
-0.48289025
-1.2182101
-0.05072792
-1.103534
-0.92607415
0.32383257
1.1013869
0.31572026
-0.40067285
-0.27977717
0.8090908
-0.31089157
-0.2834248
0.4296588
0.17419854
0.37497094
-0.111840636
-0.9103311
0.8738974
0.27598634
0.93709916
-0.2653453
0.35301664
-0.098693565
-0.28604898
-0.11163266
-0.50543004
-0.10530467
-0.77137417
0.20688467
0.9308254
-0.23634417
0.97262245
-0.6360269
-0.8176228
0.8559512
0.21871555
-0.330181
-0.71652687
0.26293445
-0.095641375
0.78165925
0.2801204
0.9571338
-0.32837215
0.16165207
0.12939058
-0.20591976
0.22133382
0.09878756
-0.14035098
0.21822506
-0.75435936
0.84003633
0.11135766
0.12124267
0.9818329
0.37466642
0.15735596
-0.39725998
-0.21695901
-1.1292977
1.7078972
1.2330987
1.155993
-0.728788
-1.1203042
-0.7501638
-1.2446618
-1.9820392
-0.5655411
-0.89212126
-0.35991234
-0.17253648
0.24295735
-1.3526583
-0.02425529
-0.39621282
0.9725698
0.6113496
0.08180136
-0.17040068
-0.43847427
0.47782633
0.36516443
0.649572
-0.81005764
-0.47556138
0.33878618
0.19897945
-0.4031269
-0.5625127
-0.32136667
-0.21512711
0.49543265
0.6047492
-0.5554395
-1.1091044
0.23430805
-0.9248788
-0.357439
-0.51150554
0.1253485
-0.932825
-0.25228617
0.34750023
0.13981037
-0.98234767
-0.34598777
-0.82243544
-0.22556014
0.47567347
-0.47435722
-0.5009207
-0.15698326
-0.11993897
-0.51380825
0.46640062
0.92146957
0.48029578
-0.01521039
-0.6971629
0.0994709
0.666665
0.1358745
0.6881769
0.52987427
-1.0310917
0.13798805
0.77066314
-0.67639565
-0.014145091
-0.7345352
-0.53606504
1.3400788
0.44192344
0.16972622
1.4732333
-0.46844345
-0.40328684
0.15273656
0.28870916
0.9323861
0.19585627
0.13216966
-0.0061550913
-0.012563053
-0.8299062
-1.3709956
-2.1902084
-0.062004447
-0.03066121
1.1519474
-0.943175
0.3042233
-1.3180366
-1.6377566
0.4452288
0.87534094
0.1037657
0.0564387
-0.42804617
-1.0035003
0.45235458
-0.6023024
-0.83149004
-0.4111457
-0.19794391
-0.28328407
0.6037666
0.7320526
0.8655869
-0.16995297
-0.3522779
-0.29086956
0.5894047
-0.22318228
0.352075
0.5789254
0.042293947
-0.25853583
-0.52366465
0.84225553
-0.45884797
0.55938154
-0.58091706
0.32291391
-0.60010356
-0.8857668
-0.9961726
0.3984188
-0.7378724
-0.104892924
0.66411155
0.7634412
0.6375618
-0.9502449
0.8451351
0.9603884
-0.9959258
-0.43769085
0.78341717
0.72851974
0.4510223
-0.26107338
0.137484
-0.96235734
-0.8439755
-0.19651502
-0.6243797
0.45925063
-0.14762841
0.4432846
0.86577487
1.2191733
1.4035038
0.7935632
-0.13265266
-0.77559876
-0.6333661
0.7973264
-0.7611967
-0.4501424
1.2555807
1.3290862
-0.13163818
-1.0439335
-0.5290709
-0.66250116
-1.3059123
-1.1572526
0.132983
-0.0095978975
-1.0033911
0.6483426
0.37210885
-0.09422721
1.1334143
-0.61035615
-0.17121644
1.0876539
-0.43107802
-0.6865292
-0.488898
0.1733678
-1.057319
-1.2951303
-0.4799045
0.32418066
-0.8164828
0.38183874
-0.036266774
0.07138549
-0.71381384
0.82781804
0.44072452
-0.94156635
-0.15178606
0.64788103
0.35576686
0.61515135
0.7626249
-0.31684253
-0.17574139
0.44689444
-0.52854747
-0.3723466
0.64247507
-0.9460241
0.23391657
0.8890075
-0.84003586
0.9118629
0.4368799
-0.6809721
-0.30596852
0.32360744
0.29691148
-0.6626688
0.2408694
0.8439186
0.90424985
-0.4024988
0.23071323
0.4330432
-0.88572353
-0.52287346
-0.2505562
-0.04658978
-0.8544286
0.2142561
-0.9063395
-0.3656295
0.40456083
-0.08820422
-0.18404292
0.21813168
1.179908
0.9506401
0.25818527
0.76308304
0.20745614
0.2242096
0.21171677
1.282323
0.3212242
0.06133103
0.011038055
0.09182747
-0.94270015
0.21862786
-1.0413189
0.16496247
0.35390437
0.61533904
-0.16549282
-0.57105297
-0.42617214
0.7581406
1.1802118
-0.40979803
-0.5675155
0.78977287
0.18336537
-0.5918879
-1.0463026
0.30246827
0.20966819
-0.7558144
-0.8351979
0.15033913
1.3186158
0.43776605
0.9263897
0.53398776
0.71803737
-0.842944
-0.6504971
-0.86646307
-0.5989571
-0.09931894
0.2723873
-0.75189584
0.043083828
-0.8769247
-0.30035123
-0.7620129
-0.3022991
-0.14946456
0.22539191
0.6710083
-0.77872926
0.09907286
-0.56579846
0.8427968
0.7567805
0.27789307
0.7171893
0.5128828
-0.035807014
0.5568337
0.83044976
-0.61084193
-0.3540744
0.54326236
-1.0607665
-0.7891136
-0.33588406
0.8115987
-0.37407294
0.2526135
-0.7846511
0.14148532
0.4608023
1.0714896
1.5064424
1.5120465
0.4661516
0.34867617
-0.006394759
0.11171681
0.71769387
0.56698734
0.66766334
-0.045749474
-0.32000136
0.7235812
0.364613
0.0018370653
-0.21308306
-0.55812275
0.11392861
0.37270287
0.25745595
0.72173285
-0.9908485
-0.013874486
-0.78676224
-0.99969417
0.285015
-0.047909692
-0.34652567
0.21795435
-1.2958049
-1.8081707
-0.20196407
0.06590417
0.15448841
-0.0453081
-0.80522704
0.14546463
0.29516453
1.4250014
0.38694787
-0.48478982
0.08207499
0.17147094
-0.32478186
0.7902987
7.249862E-4
-0.8773205
0.6139725
-0.84958786
-0.4263042
0.095941946
-0.15202637
-0.5305514
-0.51117927
-0.033869226
0.5629094
-0.57237166
0.89676946
-0.9342285
-0.6781257
0.4537363
-0.7457013
-0.07445276
0.6317005
0.9232465
0.81103534
-0.111559466
-0.3720872
0.15033416
0.104342446
0.15325473
0.8097398
0.27128306
-1.0087332
-1.0470928
-0.7824049
0.47625345
-1.1284639
-0.39533746
-0.32790512
0.50389075
0.4729538
1.2488254
1.1661103
-0.20554635
-0.56491566
-1.0873044
-0.036788076
1.3494768
0.04409447
1.0621885
-0.3689997
-0.08034179
-1.0245551
-0.4292143
0.2346444
0.34531426
-0.8858884
-0.701431
1.0180496
-0.4475755
0.4611643
-0.40574622
-0.91437155
0.71672285
-0.08722214
-0.04491715
0.047236502
-0.82299966
0.1977221
-0.37230065
-0.58599865
-0.8529029
-1.2165632
-1.2741284
-0.57876885
0.8678872
1.2953095
1.123487
1.1723388
0.6832272
-0.34101507
0.5654773
-0.4579263
0.4083586
0.22528017
-0.8216969
-0.067800954
0.60991424
-0.33041868
-0.3243942
-0.33197615
-0.8453383
0.5669159
0.34594682
0.6978026
-0.11578174
-0.4790047
0.17153995
0.8140301
0.41503513
0.61308944
0.011903763
0.9603597
-0.21544838
-0.89716214
-0.033009965
0.048133176
-0.76575977
-0.6865306
-0.7240623
-0.2632071
0.19825922
0.4461135
0.2003953
0.5576313
0.5065778
-0.62033695
-0.9140488
-0.6268086
-0.52724457
1.3809538
-0.32942802
-0.6221494
0.32452032
0.45447907
-0.46299103
0.8693355
0.11176424
-0.06865035
-0.96702015
-0.5161034
-0.10569417
0.59441334
-0.26092
-1.0836793
0.054411188
-1.0876323
-0.071440026
0.12810884
0.40560937
0.6207493
-1.3296466
0.036293224
-0.08933176
-0.44013932
-0.37058187
-0.33155078
0.052021235
-1.0650253
-0.23826644
-0.53286517
0.5026331
-0.086005956
-1.3027546
-0.038086385
-0.91872585
0.54633605
-0.046472102
1.4757327
-0.3978808
0.9084502
-0.71222776
1.1210972
0.4114788
0.7430258
-0.49761915
0.1430735
0.8046302
-0.30482492
0.17807023
-0.7237403
-0.23420604
0.03159694
0.7572172
-0.401471
-0.53628427
0.7507208
0.28261128
0.07593112
0.15503538
-0.29154515
0.85237396
-0.6415551
0.50713676
0.09228365
0.9531906
-0.6546449
0.45625058
-0.97893
0.00420581
0.07437967
-0.75130725
0.959662
-0.48149958
-0.52941483
0.47384375
-0.27665418
-0.68951935
-0.4997182
1.1654825
-0.19194387
0.45339054
-1.1265218
-0.8234123
-0.4083958
0.027043015
0.80110735
0.20988202
-0.8470845
0.61071587
0.07349874
-0.31056252
-0.43258607
-0.18802062
-1.1784174
-0.3565055
-0.72873616
-0.06196086
-0.6424625
1.3934896
0.08514591
-0.16904725
-0.2807322
-0.59697855
0.67779016
-0.33249235
-0.49349675
-0.81795913
-0.4449153
0.47947505
-0.9951415
0.79306674
0.31609693
-0.19315489
-0.8609476
-0.018018112
-1.0941339
0.30027348
1.3016391
-0.8576598
0.6657158
0.31931826
-0.41026756
0.023744106
-0.6868005
0.4157063
-0.2835558
0.050790146
0.06654386
-0.6037592
0.07517187
-0.34323832
0.44205382
-0.7353402
-0.29895756
0.32160524
0.30819097
-0.06028064
0.4442697
0.5837164
-0.53420746
-0.23649025
0.6741116
0.47768167
-0.7623727
-0.6868827
-0.70983464
0.345984
-0.80852234
0.33707544
0.90314126
-0.20973183
-0.45706198
0.88029444
0.85582745
0.04748158
1.1193143
-0.19196479
0.3923312
0.18268172
0.15275837
0.22376679
0.13686205
-0.85950834
-1.1123204
-0.30512378
-0.08770089
-0.3850103
0.7211947
0.046164393
-1.1280597
-1.2098666
0.17199363
0.3441648
-0.3041374
-1.2516646
-1.5047842
-0.09401177
0.86183745
0.8366529
-0.6842334
-0.46174812
0.5463858
0.1587933
-0.0780125
-0.47251877
0.1078203
0.5268896
-0.37368363
-0.15023482
0.049228285
-0.9661516
0.1696528
-1.7397692
-0.9903189
-0.52341485
-0.75333107
-0.9736607
0.38496172
0.4426957
0.5818095
-0.59032345
0.21162662
0.62598085
0.21079206
0.2835499
-0.072591156
0.69632137
-0.68709797
0.9084596
0.40211073
0.30799785
-0.0549738
0.53757674
-0.051844794
-0.23179312
-0.11926992
0.7580028
0.8790373
0.83752406
-0.91103125
0.03276193
-0.43869805
-0.53315216
-0.39398274
0.34267607
0.04352955
-0.12166931
0.34413692
-0.12344588
0.36256632
-0.019223707
0.58327836
-0.76570475
1.2437094
0.22431365
0.9424555
-0.3201056
-0.54786
0.41044688
-0.68118316
0.029949158
0.39162046
-0.20063154
1.1029501
-0.36947975
0.23338373
-0.5134124
-0.807234
-0.47369266
-0.7071891
-0.8402811
-0.46202886
-1.2453823
-1.4677284
-0.9779002
0.36526367
-0.20645301
-0.41446704
0.32695726
0.24517298
-0.78905296
2.8170645E-4
0.42235023
-1.2699323
-0.13208333
0.5669704
0.9222519
-0.80253273
0.38114128
-0.8175421
-0.39221957
0.4357943
-0.22102524
-1.127708
-1.269394
-0.6347146
0.6050154
0.23234966
0.42150524
-0.99864817
-0.35892445
-0.19969442
0.5073544
0.24758741
0.5569999
-0.82680345
-0.83263505
0.48782167
0.29487732
0.56983787
0.9565963
-0.6537457
-0.81606776
-0.7930487
-0.41389355
0.52828246
0.3792775
-0.93897825
0.08535707
0.8923284
-0.12775135
-0.21288812
-0.57955664
0.0074171256
-0.48601684
-0.9446202
0.5673847
0.28093895
0.09055184
-0.0012983249
0.5458735
0.013507406
0.19047377
-0.5295562
0.20177856
1.0878555
1.3664833
-0.058423106
0.8755253
1.1659464
0.7349594
-0.36846238
-0.04915701
-0.36662883
0.9094913
-0.0091766445
0.41480434
-0.81171495
0.8036877
-0.90232015
-0.51291347
-1.278534
0.54647857
0.25877
-0.62917614
-1.112537
-0.7693572
-0.8104134
0.5219571
0.6153219
0.45516902
-0.9082231
0.3475659
0.6917298
0.3590596
-0.5586588
0.3452395
-0.33262718
0.39264312
-0.70886266
-0.4214165
-1.0869063
-0.83176655
-0.76999855
0.083834976
-0.9910759
0.60236394
-0.84272504
1.033427
0.029582959
0.013185081
0.29919407
0.2632041
0.038676832
-0.045437783
0.07634437
-0.11670467
0.71345234
0.644091
0.46286467
0.4946442
0.35197416
0.8067208
-0.1466846
-0.74945885
-0.54954857
0.79698974
-0.45100233
-0.47147655
-0.7870947
0.30184376
-0.7273207
0.89177245
0.9606789
0.71395427
0.6517971
0.30318865
-0.07108785
0.33714458
-0.46320882
-0.55901694
0.51359063
0.31363615
0.5972201
0.7722232
1.5258701
0.9722395
0.25298688
0.7846413
-0.015236124
0.8728271
-0.33576334
-0.77575356
1.4409003
-0.71130294
-0.48885417
-0.36624944
0.6097792
0.22466399
-0.7857124
0.6501185
-0.76782525
-0.92759824
-1.5107892
-0.23429132
-0.07040195
-0.109044746
-0.22756998
0.4216456
-0.6191057
-0.14993422
-0.45720088
0.32759154
-0.5429413
-1.0642633
-0.865882
-0.23224528
0.012716338
-0.3711818
-0.67487186
-1.5190972
-0.3362676
-0.60033625
-0.9868833
-0.13531455
0.24257934
-1.1439455
-0.85443366
-0.68345463
0.24022314
0.05685383
-0.23531587
-0.585721
1.0092523
-0.2827857
-0.45947385
0.2798103
0.9169749
0.5476583
-0.8342438
0.018555922
-0.29298088
-0.022062736
-0.18736346
0.56054956
0.46459666
0.37416235
-0.08932765
0.22747874
-0.62060416
-0.5930995
0.4066546
-0.12695678
0.09333353
-0.054583866
0.4748558
0.8179803
-0.47516719
-0.654497
0.8679029
0.3257334
-0.1268657
1.2160645
0.36588496
1.2517568
1.5735556
-0.29160622
-0.54870856
0.7000161
0.08740063
0.02913551
0.39243168
-0.09679696
1.3991947
0.8089544
0.99743557
0.37128878
0.8211117
0.06848218
-0.80686253
-0.98389274
0.22396459
-0.26240423
0.055562362
2.95535E-4
-0.88325316
-0.21062194
-0.27327925
0.58390105
0.6547205
0.7864235
0.6341651
-0.4136414
-1.5105553
-0.52785283
-1.2286489
0.87588745
0.8519042
0.31434485
0.46323267
-0.5074794
0.2874414
-0.29205978
-1.020862
-0.10809346
-0.8315811
-0.27614772
-0.22218779
0.10525921
0.31093523
0.19706014
0.85420984
-0.30163077
0.16058232
0.45492822
0.2980977
0.825202
-0.65739346
0.33455786
-0.08523898
-0.08778031
0.45609072
0.82546264
-0.15424736
-0.3112975
-0.95344514
0.3746467
0.24144737
0.8881588
-0.78554296
0.9159199
-0.3296827
-0.7163648
-0.9233416
-0.43894288
-0.56080836
-0.83815396
0.86831737
0.34879777
0.3386089
0.55756676
-0.21318269
-0.03573656
0.42425114
1.0939628
1.3582487
0.85107124
-0.6621401
1.1826123
0.6412534
0.7787002
0.88990164
0.50211626
0.3021097
1.1724029
0.99273074
0.41290835
-0.755895
0.7152406
-0.48273188
-1.0590284
-0.74195915
-0.18352188
0.16844057
0.22289167
0.2603234
-0.61759496
-1.0378958
0.07071103
-0.88829154
0.5503653
0.073870406
0.12839355
-1.2457546
-0.6872499
0.06049815
-1.0367217
-0.4754709
0.29872727
0.15876278
0.1850208
0.43673602
-0.27982712
0.017172316
-0.96575004
0.5957387
-0.09860328
-0.9596174
0.19909656
0.8246733
-0.9144516
-0.3666116
0.04000002
-0.9100204
-0.85178035
-0.33887714
0.09973788
-0.9319842
-0.42643532
0.2185852
-0.34111184
0.0547599
0.42817655
-0.63080376
-0.8427748
-0.7144565
-0.672007
-0.01493855
0.24072039
0.046892285
-0.45652092
-0.8865999
-0.12694967
0.69758695
0.60052603
0.369355
0.07175659
-0.13004257
0.56439626
0.33277872
0.71524
0.008991463
0.5159111
0.53762656
0.5352899
0.3252008
0.801757
0.4504452
1.2885306
-0.3489657
0.32695627
0.9980918
0.4756637
-0.28437248
1.0550549
0.7553756
0.91309345
0.48834985
0.67385614
-0.6520879
-0.8748335
-0.81622887
0.104678616
0.27569735
-1.2284954
-0.53519887
0.015688747
-0.5674366
-0.656884
0.14656036
-1.3543792
0.483019
-0.49601382
-0.2052205
-1.7138872
-0.5493783
-0.8640544
-1.0401766
-0.834873
-1.0959964
0.5846804
-0.65153474
0.17895494
-0.2895915
0.43760073
-0.42593706
0.4046179
0.50307703
-0.36574948
-0.7733246
-0.7770755
-1.1836088
-0.781317
0.11402061
0.19237615
1.0331867
0.8838477
-0.061170667
-0.6043892
0.07003194
0.39192125
-0.6311193
-0.28538927
0.59880406
0.7483228
0.60481304
-0.95174986
0.47017577
-0.8564987
0.71028817
0.043730617
0.7196841
-0.2037009
-0.83097965
-0.6990071
0.98182
0.6166036
0.1210625
0.21666025
-0.5654507
-0.84384656
0.37093726
0.46756375
-0.29008305
0.83152246
0.38646486
0.7760056
0.5251256
-0.5228665
0.35448146
1.2348018
0.88069403
-0.020945266
0.4168569
-0.18097846
-0.08219428
-0.3455277
0.29895437
-0.50784487
-1.0898801
-0.99939543
-1.0888245
0.16151486
-1.3311821
0.27338058
0.35558966
-0.4424762
-0.7577212
0.8829367
0.10285023
-0.90731585
0.41364193
0.73076516
-0.9310544
-0.40394825
-0.8578258
0.24070913
1.0100999
0.36185056
-0.37437966
0.15204595
-0.6586287
-1.1597378
0.31700566
0.49488953
-0.47777194
-1.187763
-0.55134445
0.5079665
0.45451203
-0.7086638
-0.74699414
-1.0312134
-1.0405287
-0.95207626
-0.7365995
0.18563136
-0.789325
-0.16625854
-0.70567524
0.7489511
0.41627428
-0.93954545
-0.6942455
0.856523
0.5996081
0.6270109
0.07696287
0.045012236
0.50466335
-0.580215
-0.7985736
0.61968434
-0.7198843
0.35148433
-0.62312615
-0.9989499
0.7115711
0.79766023
0.16153513
0.81822795
-0.7553252
0.5528823
-0.64246166
1.4000189
-0.33212924
0.5492909
-0.83163536
-0.9340965
-0.041637078
-0.18096606
-0.43705702
1.2753649
-0.10266529
-0.5237185
0.1669609
-1.1737748
-0.8601474
0.13760757
-0.5443144
0.14360927
-0.77023757
-0.88206935
0.48049408
-0.81119704
-0.99694633
-0.23838066
0.026401699
-0.9039962
0.022801816
0.46633443
-1.0871255
0.5542216
0.23365134
-0.24600525
0.049640354
0.7957782
0.63542
-0.11938511
0.57407165
-0.021118438
-0.20337258
-1.2238425
-0.91574055
-0.7157132
-0.15731917
0.82633346
1.0474889
0.0514425
-0.120429434
1.0567656
0.7780708
0.34317634
-0.001447618
0.015331734
-0.80009407
-0.21625441
-0.026971849
0.3630965
-0.0745219
-0.1300604
-0.7409979
0.09234244
0.974093
0.29084817
0.84400016
-0.7789895
-0.5522353
-0.06322563
-0.40230787
0.2342906
-0.7383164
0.014595628
0.48805285
-0.038683534
0.70154035
-0.08899368
0.022692906
0.7611164
-0.6424667
0.9912343
-0.56103504
0.7396823
0.031293094
-0.54795194
0.72228277
0.74871385
0.36216384
0.39200914
0.109979086
-0.19746695
0.88523316
0.85021526
0.7540687
0.46548873
0.5549145
-0.02679339
-1.0135682
-0.9429442
0.6601139
-1.0526693
-0.44099224
0.006172985
0.4926098
-0.43810374
-0.38683945
-0.75259244
0.3386738
-0.9326104
0.87993026
-0.5145929
-0.8914581
-0.43791097
0.100754604
-0.21231563
1.1091099
-0.5005705
-0.23509525
0.35859537
-0.25169945
-1.0448909
0.05119939
0.66992277
-0.76707435
0.7316081
-0.4166558
0.66001
-0.23577203
-0.24247797
-0.27303958
-0.17283842
-0.16537142
-0.5250325
-0.09539626
0.0672864
0.55463034
0.78581125
-0.32534605
-0.9008988
0.2868781
-0.29629934
-0.46954912
-0.97946596
-0.3511897
-0.96537143
-0.98184377
0.9545947
0.6558785
-0.570187
-0.15793312
-0.53347886
-0.13640714
-0.1027236
0.5529913
0.31287575
0.15168309
-0.71645546
-0.2791542
-0.6551206
-0.75530756
0.35605887
-0.52080846
-0.6738943
1.2579879
0.26662803
0.028671244
0.5383568
0.07564
1.0091698
0.1425667
-0.20515834
0.13880605
-0.64264065
-0.58608353
0.8691916
0.89190656
-0.31953794
-1.1203108
0.07242836
0.36990213
-1.436596
0.20562766
-1.0391353
-0.55967784
0.7045499
-0.8403612
-1.0389972
-0.4006071
0.07929668
0.7462528
0.23544872
-0.088843465
0.5636543
0.7241699
0.037869155
0.04387127
0.44615138
-0.31843638
0.64988923
0.18567598
-0.91063786
0.48001254
0.3763213
-0.91984767
-0.61274534
-0.51530993
0.43021443
0.48603112
0.4716792
0.31732178
-0.7300332
0.18830323
0.16828638
-0.49401265
-0.41678676
-1.3936288
-0.021570217
0.59458435
0.89691484
-0.8719417
-1.1670204
0.20554626
-0.62244564
-0.7364661
0.970769
-0.79239696
-0.24263175
0.7465374
-0.9123782
-0.51444006
-0.13871431
0.54567444
-0.7276833
-0.18241954
-0.5307865
-0.026782155
-0.115731955
-0.3205412
-0.28254172
-0.84529483
-0.7264874
-0.8641509
-0.48463678
0.7977148
0.76189566
-0.12925439
-0.8339758
0.73453945
1.0668249
-0.31648183
0.096233726
-0.07812344
0.73965275
-0.1446185
-0.3289727
0.45184278
-0.27327186
-0.44068068
-0.062078923
-1.0656596
-0.14532298
-0.53274864
-0.9831062
0.6303389
0.64519435
0.6696762
-1.2493341
-0.7050489
-0.49500027
0.20794135
-0.6755166
-0.3571347
0.33226722
-0.62880325
0.74407893
-0.16245334
1.281974
-0.4747175
0.6143255
-0.67752236
6.9439557E-7
0.28199875
-0.29372025
0.31413588
0.5181424
-0.066990815
0.78218085
-0.24056171
0.25557375
0.9559051
0.63507503
-0.05356331
0.6515907
0.31316575
-1.2671124
-0.2193208
-1.3005844
-0.22157212
-0.7593146
-0.8455791
0.013060212
0.26795602
-0.8842329
-0.26310274
0.08028416
0.726052
0.45733622
0.5641437
0.648409
-0.24965215
-0.7850288
-0.67778397
-0.4623071
-0.26726305
-0.6934366
0.6307194
-0.42627406
-0.94466245
-0.6572943
-0.0947621
1.1654283
0.90585554
0.670572
-0.36047095
1.09728
0.19847259
0.96219206
0.034249812
0.4212711
1.3387456
0.97467804
0.024289176
0.3207849
-0.36472344
0.8630776
0.5357933
-0.5854484
-1.0726105
-0.45960295
-0.7183173
0.12195052
-0.61953175
0.09607132
-0.6821434
-0.08931552
-1.2346563
-0.9101927
0.22324309
-0.8134459
-0.27325618
0.37204632
0.81415087
-0.44772172
0.22888929
-0.11710961
0.88305545
0.6071356
0.57618165
-0.0060962588
-0.31233007
0.23337074
0.37816274
0.85333365
-0.3465052
0.34223625
-0.30934414
0.44529364
0.10723634
0.9300543
0.42759186
-0.8207775
-0.6199009
0.7277515
0.09655866
0.15228069
0.1265203
-0.34318602
0.19383428
-1.0649325
0.13202088
0.4945778
0.30088273
-0.8711328
0.42668614
-0.0780517
0.1133834
0.94985145
0.27982107
-0.7305621
-0.24183786
-0.45596755
0.2078036
0.50916934
-0.26881194
0.54224634
0.80321264
0.64873993
-0.75485766
0.5611048
1.0662289
0.5576636
1.115666
0.6851554
1.1722144
0.7056138
-0.7885342
-0.35749334
-0.30580002
-0.5048754
0.30328625
0.33592576
0.7691671
0.92934716
-0.51352847
0.11024116
0.610721
0.55126065
-0.0046541393
0.3266213
-1.1056436
-0.12050857
0.5363848
-0.49309003
-0.9082668
-1.1010147
-0.44948384
-1.0599613
-0.5236112
0.67207897
-0.726906
1.1568166
-0.26928926
-0.19950281
-0.4045568
-0.6215711
0.8109912
2.8078258E-4
-0.21044974
0.6432927
0.98045796
-0.19971316
-1.5284321
-0.6607959
1.2665343
-0.2966732
0.05413985
-0.076581605
-1.0736067
-0.6950645
0.5481798
-0.6120068
0.7456648
0.8513089
-0.5289568
-1.6613309
0.049550697
-0.32338488
-0.6833838
-0.51176906
-0.32561815
0.18587856
0.80048406
-0.6076183
-0.3694044
0.10064934
-1.1398742
0.5627178
-0.4666539
-0.57372427
0.7778262
0.5812402
0.90505934
-0.07812917
-0.9496416
0.42821574
-0.62573075
-0.86261654
0.95124435
1.27855
0.92071927
0.7556246
0.58192885
0.6535785
0.54848593
1.1484345
0.14970854
-0.5755451
0.5410218
1.0544171
1.3195095
0.08403701
-0.44510323
-0.17456177
-0.6848778
0.12786925
-0.21206722
-0.33217835
-0.98963565
-0.43229228
-0.9141304
-1.2234132
0.35777718
0.3879164
-0.31354737
-0.530337
-1.0472747
-0.0036185086
-1.2003131
0.3404472
-0.66277575
-0.30318135
-0.8048039
0.75173813
-0.11584048
0.5764726
0.6219027
-0.35918623
-0.383331
1.1153423
-0.6819264
-0.26675802
0.0718479
-1.2486098
-0.26163614
1.0837606
0.0019330931
-0.37201998
0.6038767
-0.4514856
0.32344583
0.44757354
0.5391099
-0.15321203
-0.21416222
-0.06952664
-0.96388793
-0.87086034
-0.45534995
-1.5719332
0.0929329
0.7565002
0.25729528
0.04941767
-0.2767671
-0.26717559
-0.28943792
-0.36246565
0.60352176
-0.40023923
-0.7282566
0.5450003
-0.305349
-0.33315742
0.606158
-0.8194375
-0.9207505
-0.56652033
0.27977365
-0.23846531
1.247921
-0.1028295
0.6791883
0.9035041
1.0389739
-0.30757776
-0.8988159
0.30652735
0.7236252
0.35229164
-0.41168016
0.5200115
0.014790177
-0.5239948
0.12634854
0.5002176
-0.5690767
0.006941527
-1.3322277
-0.38803756
-0.3104949
-0.13905324
-1.0168364
-1.3591771
-0.42835984
-1.4410377
-1.6271789
-0.25956976
-0.6556194
0.5196336
-0.23404111
0.8225896
0.9505408
0.5617355
-0.85600835
0.23184128
-0.33078116
-0.51268655
1.3856616
0.67845196
0.39437422
-0.5079679
-1.2989633
-0.09078482
0.24864589
-0.80286103
-0.37861305
0.65895647
-0.0048485296
0.71685064
-0.20582713
0.26942834
-0.035475228
-0.07390799
-0.6077924
-0.785087
-0.5851344
-1.0995964
-0.6537776
0.21138772
-0.55203015
-0.69382024
0.7738002
0.8785547
-0.7823346
-0.3839657
-0.104734674
-0.35183755
-0.47894332
-0.6164973
0.7178978
-0.3729422
-0.93336654
0.52040637
0.5192373
-0.28470314
-0.026044965
0.1522094
-0.09950907
1.0386007
0.047806695
0.032606706
0.63037515
-0.16011272
-0.65167254
1.1062822
0.66934407
-0.8705392
-1.408144
0.086779505
-1.3971491
-0.32595986
0.35536382
0.41249856
0.8434473
-0.057966813
0.07420157
-1.2221453
-1.2357464
-0.9864198
-1.2341923
0.5536243
-0.38263384
-0.68736684
0.27823243
-0.39904612
0.06635913
0.45544493
-0.33494386
-0.11908735
-0.55300987
-0.8753976
0.1533804
0.05469939
0.26490155
-0.18583213
0.33225912
-0.31203395
0.56759405
0.5391496
0.59377354
0.75615644
-1.0147915
-0.416741
0.32888812
0.40833974
0.39075142
-0.46109894
-0.8881277
0.24477915
0.15967712
-0.9388111
-0.07828872
0.6140882
0.668793
-0.08945018
0.4894276
0.38183215
-0.53802866
0.49545693
0.15315261
-0.098791935
0.6634861
-0.14203084
-0.2588884
1.1110173
-0.45484176
0.8758306
0.538011
-0.8552723
0.6839291
0.14389575
0.13218665
-0.37587225
-0.60473
-0.23928452
-0.6112448
-0.41015494
-0.007846221
1.0654922
0.40839744
1.3569697
0.104726546
0.77653956
-0.95967865
0.36358592
0.11060837
-0.97812486
-0.8908675
-0.04576218
-0.14580218
0.24881959
-0.92529094
-1.005495
-0.030845195
0.032058015
-0.26767433
-1.8757299
-1.5891777
-1.8475398
-0.6454911
-0.45307568
-0.49534845
-0.77297056
-0.6421007
-0.33297122
-1.4282206
-1.0327253
-1.0733522
0.08067289
-1.0078295
0.29507348
-0.277775
-0.92090535
-0.4521992
-0.0900906
-0.2836234
-0.6391682
0.73160803
0.06629801
0.009647965
0.7684781
-0.77348125
0.021403417
-0.3634239
-0.561697
0.33038074
1.0994786
-0.38359556
0.7625953
-0.7703038
-0.041269906
-1.1067123
0.36669058
0.4808612
-0.50799733
-0.4779993
-1.065248
-0.5399971
-0.55778486
-0.4044603
0.4328617
0.43065095
0.6938038
0.21383452
-0.7559624
-0.56133974
0.76198727
-0.13212736
0.87127995
0.12984705
-0.20285594
0.35481048
-0.5267941
-0.039173126
-0.083331466
-0.4677508
-0.33068874
-0.7923261
0.04877068
0.5430265
1.2814485
1.1375388
0.71545535
0.4412907
0.41594687
-0.86551833
-1.2616434
-1.082936
0.22400427
-0.28190464
-0.81471026
0.26242596
-0.7869427
-0.78940475
-0.04829797
-1.8982581
-0.68903434
-1.6503326
-0.4047858
-0.5391109
-0.5864599
-0.048790902
-1.4369061
-0.83432114
-1.1059595
0.4814262
-0.69396293
-0.5954226
-0.94879425
0.47155812
0.78521156
-0.12630448
0.7719978
-0.56641483
-0.31167954
0.013991028
-0.06962593
-1.5393759
-0.67163604
1.2716846
1.4578891
-0.15046756
0.86668396
-0.3676458
0.50438684
0.32868037
0.5467544
0.87056863
0.9513717
0.82038915
-0.31572813
-0.82358575
0.38552678
0.7728927
0.09556907
0.86697614
-0.5268464
0.33100387
-1.1747391
0.9375246
0.8694028
0.5448726
1.195449
-0.3802307
-0.16319251
-0.26704958
1.1584173
-0.8896741
-0.6624062
0.41594422
0.98830926
-0.35995877
-0.32890046
0.15640283
-0.2689613
0.40852773
-0.23894347
-0.83163595
0.38289142
-0.13173766
0.42361334
0.6838752
-0.20584069
0.80181605
-0.8752883
-0.551592
-0.42207515
0.608518
-0.4731055
-0.673438
0.34527978
-0.4759046
0.70809233
0.044355422
-1.5385107
-0.95412123
-0.023349315
-0.9948193
-0.08766696
-0.81361914
0.023952395
-0.088861674
-1.2387583
-1.699735
-1.4661528
-1.7374805
0.16590253
-1.2895576
-0.19724508
-1.4642719
0.580119
-0.816247
-0.6273874
0.0166727
-1.1374447
-0.92280626
-0.82464087
0.42989692
-0.92939603
0.32494655
0.913909
0.6444222
0.59551936
-0.04676883
-0.039977476
-0.08466558
-0.93692315
-0.33453423
-0.48671517
0.7007688
0.005865678
-1.1429199
-1.083399
0.8300358
0.52009386
0.6985736
-0.7845434
-0.18061998
-0.988631
-0.0373792
-0.7161091
0.7374665
-0.50619406
0.85870934
1.1725562
0.031670567
-0.6042696
-0.72522587
-0.7775527
-0.0075273514
-0.3668623
0.3227502
-0.79180074
-0.7118398
0.36374462
0.2120949
0.24647963
0.14217648
-0.18943153
-0.068795756
1.7458948
1.2676543
0.9606183
0.8915328
-0.34170318
-0.8244883
-0.23459904
0.51524657
-0.6575452
0.023299158
0.6172645
0.8524952
-0.29329115
-0.9929304
0.47023678
-0.56542754
-0.85021067
0.04611285
0.18072575
0.13136476
0.25007004
-0.4482482
-0.5843315
-0.2651713
0.0073191226
-1.4466592
-1.6432718
-0.063788146
-1.258952
-0.057203263
-0.7852993
0.38036212
-1.0809768
-1.0884842
-0.30167264
0.3548377
-0.35346568
-0.0714352
-0.08553891
-0.6101645
0.3993802
0.40148687
1.4304436
-0.5955235
-0.22324197
0.36560434
-0.6632316
-0.26394522
0.22576837
-0.7193333
-0.6036862
-0.34938258
-1.0304941
-0.3520124
-0.30531287
-1.0466046
0.66010964
0.5743055
-0.01540068
-0.2690665
-0.8591552
-0.954079
-0.0027267507
-0.731461
0.0054876786
-0.3599395
-0.01003504
0.8166813
0.3113116
-0.7523545
-0.5790746
-0.90891147
-0.47763824
-0.66005075
0.90858114
-0.13548577
0.6222919
0.3805498
-0.2500093
1.6604685
0.5281426
0.5634127
0.52114683
-0.5917178
0.39726353
1.0663681
0.5773707
-0.337542
0.25993255
-0.7240211
0.03598933
-0.5121932
-0.8905415
-0.6913383
-0.25353038
-1.2189479
0.29199255
-0.31110162
-0.7661188
-0.8269455
-0.03882222
-1.0867946
-1.4700179
0.24019141
-0.21645327
-0.39729327
0.08304395
-0.051611513
-1.1930592
-0.5278705
-0.8440674
0.5212687
-0.25751677
-0.85826015
0.84847945
0.19624983
0.34955418
-0.64104784
0.23891738
0.9276118
0.10391899
1.0740666
-0.29789764
0.09264774
-0.6402817
0.4193868
0.51152116
-0.42839044
-0.4592086
0.2748565
0.032965824
0.8544233
-0.3878379
-0.85069513
-1.1164635
-1.0128455
-0.028912887
-0.16210692
0.3768464
-0.28064895
-1.3633516
0.1331021
-0.9189971
-0.8931915
-0.7783317
0.7593159
0.9078503
-0.39920792
-0.5838938
0.4905256
-0.03591335
-0.6138611
-0.9008843
0.047171116
-0.056790948
1.0568407
0.6286305
-0.5677828
0.49054593
0.3299619
-0.379268
0.48412842
-0.7916154
-0.014899686
-0.97463
0.07798481
-0.811319
0.80279624
0.028759703
-0.5019101
0.97816765
-0.7988434
-0.17188573
-0.34930193
-1.4523306
-0.45502955
0.17636895
0.2600664
-0.24696617
-0.14129357
-1.0973064
0.47324193
-1.1962277
-1.137983
0.06420286
-0.32776108
-0.3591872
-1.3859441
-0.050991803
-1.0524757
0.55891603
-0.028440908
-0.42167586
0.5836789
-0.48641986
-1.1269269
-1.0231264
-0.8649275
-1.0412941
0.45720053
0.45689458
0.025803328
0.31998628
0.6105824
-0.67211765
-0.75081664
-0.10713191
-1.2459784
0.5785222
-1.1808753
0.60864794
-0.30421913
0.41027316
-0.54617834
-1.2544792
-1.469427
0.22454438
-0.090491526
-1.0751791
0.6176673
-1.0961888
0.31986997
-0.5953081
0.98067135
-0.44088146
0.07169263
0.6109963
-0.7947052
0.1451751
0.5453656
-0.21670604
-0.68366015
0.8693538
0.83404243
0.5776064
0.26190108
-0.23184343
1.0531288
0.46490598
2.1330118
0.8002766
-0.5159979
-0.64979124
0.13384613
-0.28080434
0.758834
0.13708144
0.32619083
0.7887124
0.49839517
-0.46814707
-1.3968732
-0.84801507
-0.53650147
-0.2692265
-0.437676
-1.2827699
-1.0193963
0.3647526
0.52582484
-0.6326826
0.20362933
-0.22089918
-0.6257042
0.41485122
-0.009659605
-0.31258145
0.70974123
0.3972827
0.0763226
-0.24693854
0.11897187
-1.1057464
-0.116926506
-1.100159
0.2978875
-0.49345
-0.544252
-1.2908797
-0.20852686
0.3925441
0.5181962
-0.5069681
-0.49288183
-0.67879516
0.9495033
-0.041672125
0.20739554
-0.47762555
-0.040413797
0.28159365
-0.9426207
0.34874067
0.672238
-0.03268917
0.07997039
-1.0558525
0.082053006
-1.2030084
0.3499346
-0.35635412
-1.0150338
-1.1336539
0.51424986
-0.10507901
0.06792121
-6.7062886E-4
0.48098937
0.15629423
-0.066040635
-0.42649853
0.6257405
0.16232193
-0.78417253
0.37129503
-0.119517945
0.9207361
0.2093195
0.8754896
1.3739096
0.17595042
-0.15120421
-0.3256479
0.54491514
1.1553986
-0.57982284
0.80946255
-0.64338386
0.6439377
-0.16682203
-1.316915
-1.0839195
-0.5134462
-0.035806283
-1.2753158
-0.958124
0.015449136
0.07759578
0.5429216
-1.1115679
-0.7526687
-0.75017256
0.2732029
-0.5700726
-0.7180093
-1.1615695
-0.7642273
0.25674435
0.2011852
0.27286348
-0.7721889
-0.1101903
0.38616475
0.25169316
-0.14014886
-0.47231063
-0.5056597
-1.4495562
0.2639253
0.14265633
-1.1722107
-1.1142755
-0.69495046
-0.59449214
-0.63525677
0.7755046
-0.4936023
-0.016029045
-0.21991496
0.39571556
0.48948225
-0.21418633
0.47201577
-0.7620523
-0.46768612
-1.0656408
-0.036119387
0.32070717
-0.34893665
-0.4454574
-1.172178
0.74048996
0.4025071
0.042488497
0.10715775
0.9684934
0.27408186
-0.22047706
0.025524616
-0.8774303
-0.30383503
0.7551527
-0.52828
-0.23240364
0.18965323
1.1855124
-0.40733415
1.2788583
0.4766978
0.6834647
-0.13426648
1.138605
0.94387066
0.65728766
0.62451994
0.6417752
0.061646845
0.114952505
-0.65990126
-0.76396906
-0.3742268
-0.6738083
-0.7848546
0.15534851
-0.83592147
-0.41138235
0.49223104
-0.8586993
0.4691036
-0.23126872
-0.13299973
0.77742517
-0.74609435
-0.74210906
0.46454898
-0.9173566
-0.14597854
-0.6414983
-1.1747918
-0.389379
0.08663884
-0.35970184
0.25379518
-0.12395844
-0.7064239
-0.10473707
0.06870797
0.20463303
-0.16927667
0.3441048
-0.6103705
-0.74691594
-0.5304092
-0.47609657
0.9259863
-0.063056976
-0.23686075
0.8305676
0.35317054
0.40396723
-0.60988593
-0.23862597
0.5049546
-1.1062273
-0.21028703
-0.67378604
-0.9239657
0.3558161
0.12906022
-0.7552441
-0.3786297
0.055047628
0.68470997
-0.17943926
0.01948945
-0.40961704
-0.9593497
-0.23524554
0.36472178
0.8099929
0.34297073
0.5352603
0.79272366
0.2610768
-0.63037217
-0.9717568
0.37104547
-0.12132779
0.44296733
1.0529114
0.022462279
1.3511974
-0.08324315
0.37075874
-0.74501157
0.23934057
0.8082226
-1.1006052
-0.63840747
1.098184
-0.31397063
0.08780712
0.6448307
0.110818446
-0.6685771
-1.0313773
-1.1906927
-0.1311655
-0.23883341
0.4777939
-1.183104
0.55015194
0.27627724
-0.68027407
0.17099923
0.026109755
-0.48575813
0.5770768
-0.4410445
-0.19707555
-0.8555994
-1.020033
-1.1858448
-0.4416954
0.7647549
-0.7051958
-0.6654727
-0.43828022
0.6963992
-0.6819048
0.54272115
0.5192739
-0.8234532
-0.007513389
-0.7557337
-0.6252798
-0.6155793
1.0105553
0.73472965
0.7863848
-0.5896274
0.4869493
0.2992137
-1.116131
-1.2737082
0.6993141
-1.0579195
-0.32096872
-1.1066604
-0.18579182
0.009625748
0.60574675
0.9833927
0.3378885
0.6361882
0.21076398
-0.32836494
-0.77868766
0.3205155
-0.26667535
-0.6836146
0.5507494
0.787743
0.07115698
-0.53484094
0.17054768
0.27945933
0.6332383
0.093783505
-0.4101266
0.6229612
0.14245169
-0.65273094
-0.8884962
0.49668482
0.36658177
0.624452
-0.40073508
-0.7839639
-0.5564093
0.32265785
0.17082542
-0.055742487
0.60160327
-1.071135
-1.0743494
0.5817287
-0.7554656
-0.91029
0.45856008
-1.0777698
0.71576047
-0.58494824
-1.0465322
-1.0904949
-0.5277558
-0.64996535
-0.2975667
-0.68651515
0.1281076
-0.147389
-0.032236636
-0.15954155
-1.198459
0.1310032
-0.9175614
-0.5478385
0.37034598
0.55873215
-0.2877632
0.7421913
0.18077362
-0.9503778
-0.3835016
-0.61123675
1.0502925
-0.035802767
0.14432018
0.3078142
-1.0469251
0.72413015
0.6356822
0.06311372
-0.79914
-0.4439209
0.67244935
-0.84738696
0.16393246
-0.42870015
0.79313
0.14274178
0.030681014
0.81866276
0.025839094
0.97543746
-0.4207122
0.050372045
0.7744071
-0.9124285
-0.032013297
0.8723397
-0.2854787
0.53872824
0.45360518
1.142629
-0.59259564
0.11749794
0.98277515
1.8586237
1.4645655
0.2601806
0.497967
0.8433915
0.556859
-1.294332
0.12254206
-1.0102015
-1.0964795
0.20191282
0.4162763
0.3797917
0.21638018
0.35905316
0.04748507
-0.3659234
-0.9238136
-1.138149
-0.8207196
-1.3274218
-0.22481385
0.048024148
-0.15379539
0.005112618
-0.5889101
-0.16496316
-0.5324979
0.35976055
-0.4550131
0.1533547
0.39212164
-0.98557216
0.5426956
-0.9333927
0.35459313
0.55278856
0.16759537
0.14537321
0.580798
0.4204379
-0.6349145
0.928035
1.0200315
0.048884775
-0.08253415
-0.08518622
-0.9002025
-0.7761277
0.27275896
-0.1960837
-0.30134073
-0.85166436
0.25442767
-0.23137245
-0.35585552
0.54398566
-0.5571521
-0.7768541
0.3630587
0.23046185
0.6500289
-0.47753084
-0.63630706
0.23877557
-0.8518381
0.5087103
0.9304835
-0.48472938
-0.06503935
0.56894803
0.1985811
-0.42964125
0.091050744
0.14383674
0.9955675
0.29664665
1.143565
0.4558974
1.4519817
1.6883622
1.8347934
0.85277736
0.49354595
-0.47814214
0.82182974
0.20359598
0.57657194
0.5596895
-0.79570025
-1.2146933
-1.287776
-1.5522306
-1.4218198
-0.40013778
-0.12365748
-1.008551
-0.54034626
-0.61101085
-0.95296025
0.0547767
-0.5501917
-0.538817
-0.70404726
0.12524612
-0.6815857
0.0020563721
0.015491498
-0.4837855
-0.19400762
-0.6623424
0.2463205
-1.1241924
-1.1307762
-0.2395675
-0.48022842
-0.91526973
-0.12653358
-0.44196284
-0.1448946
-0.64614576
0.50875115
-0.11712333
0.5202577
-0.27505887
0.3140322
-0.8268201
0.2084624
-0.7771681
-1.1193813
-0.01248984
1.0044794
-0.6031224
0.79146653
-0.7685653
-0.5473362
0.710459
-0.13864784
0.53219706
-0.52293134
-0.45084876
0.5978753
0.23271714
-0.304546
0.40645915
-0.6367741
-0.2859597
0.34784165
-0.6747301
-0.6158832
-0.18364036
-0.06286991
-0.42354918
0.50795317
1.1162713
-0.35959297
0.9564839
0.58916146
0.67543906
0.11037558
1.1747051
1.4682181
0.35513145
-0.3743391
-0.5664516
0.7753704
0.040050924
-1.1590774
0.10730095
-1.3487494
-1.2961438
-0.72286284
0.45526147
0.33162314
-1.1952515
-1.1531951
-1.3376577
-0.13874088
-0.85870826
-1.1011156
-1.0768936
-0.010216147
0.4112175
-0.11607173
0.29814106
0.12421997
-1.0922929
-1.0087203
0.4803006
-0.1829578
0.38006788
-0.88783664
-0.6866781
0.4116345
-0.80064607
-0.69299304
-0.7421961
0.30048972
0.4913445
0.58441025
-0.5286172
-0.8283858
-1.2633499
-0.6708097
0.118315175
-0.27062467
-1.1195316
-0.48833552
-0.6646554
-0.3808396
-0.22318411
-0.36190128
-0.6786359
-0.6645872
-0.390575
0.20455746
0.81027335
-0.81683785
-0.7330859
0.79257035
-0.35399243
0.56177884
0.96895075
-0.63941336
0.37627825
-0.45287827
-0.24900456
-0.66885406
0.46672466
0.9111921
0.3831607
0.16526735
0.3640672
-0.005179405
0.44310486
0.38844508
0.2541036
0.434498
1.2849538
-0.6162613
0.75873184
-0.3395849
0.47708982
-0.13634916
0.5611392
0.8958806
-0.058546565
0.9120556
0.55034137
-0.679952
-0.7227935
0.60324234
-0.9162151
-1.4862874
-0.54302824
-0.20936272
-1.0402232
-1.0733995
0.22802722
0.036652774
-0.39431682
-0.65066737
-0.90898246
-0.5957672
-0.019242078
0.20641823
-0.5876871
-0.8135734
-1.1820045
-0.35822573
0.33975047
0.27182132
0.27788943
-1.009595
-0.6798776
-0.25012654
-0.25721294
-0.36693317
0.5123889
-0.5701398
0.19590123
0.77191585
-0.5779235
0.33342367
-0.76100916
0.35898286
-0.9500485
0.19551297
0.589709
-0.40696102
0.049969316
-0.38943017
-0.14709242
-0.40791035
0.5611385
0.04105316
-0.24930915
0.13116099
0.43591854
-0.9233687
0.22679088
-0.039692003
0.43744847
-0.63487804
-0.74164975
0.9666912
0.7651697
-0.08138652
-0.87796384
-0.080865934
0.22286105
0.37694192
0.2584468
0.5883931
0.26190388
0.075169444
0.61967194
-0.022426367
-0.623481
-0.36011797
0.24894352
-0.27099854
0.56920195
-0.2543831
-0.85802734
-0.86064506
0.92038226
-0.7085117
0.11614752
-0.71149755
-0.09584391
0.11903101
-0.099470675
-0.3847322
-0.20115525
-0.34069008
-0.9788614
-0.48463446
0.7876113
-0.5452329
-0.465622
-0.8026425
0.5711399
-0.09713571
-0.548914
0.33506542
-1.0443205
0.24698837
0.45158774
-0.13553302
-0.6134396
-0.4915231
0.4263633
-1.153752
-0.012921021
0.67167443
0.3520375
-0.1533734
0.6661039
0.5545055
0.25395507
-1.190836
-1.1838158
0.44739467
-0.80965596
-0.7455973
0.4786288
-0.4038847
0.15505572
0.24372165
0.65533864
-0.9677985
-0.9725739
-0.20653287
-0.5509274
-0.014572263
-0.16010387
0.29927543
-1.0943118
-0.66992164
-1.1813054
0.26448104
0.80710167
-0.91912496
0.06372699
-0.20845504
0.8300026
-0.7845915
0.6203372
-0.08845575
0.26598632
0.49819648
-0.23034418
-0.45687675
0.4129598
0.5284703
0.48813492
0.155127
-0.3846113
1.1165996
-0.5908881
0.6480355
-0.520695
-0.717955
0.02877295
-0.6393969
0.6189525
-0.6220027
0.8278434
0.24723649
-0.38233852
0.28878105
0.58163613
0.49123055
-0.37393636
-0.89710087
-0.68498665
0.083981216
0.10071528
-0.19590902
0.6923481
-0.89263034
-0.9609535
0.39561582
0.2352016
-0.27012396
-0.4743899
-0.19534564
0.4141112
0.7282254
-0.9780156
-0.17644791
0.6987508
-0.43663698
-1.0507876
-1.1843821
0.26222986
-0.70859414
0.791948
-0.87285846
-0.8288973
-0.067705914
0.45586413
-0.6452771
-0.046558186
-0.06847875
0.105201915
-0.14404576
0.38418478
-0.9506559
0.37125966
0.079800345
-0.22380808
0.94324696
-0.46952236
-0.076791406
0.78303474
0.443836
-0.48109934
0.20107815
-0.8374995
-0.8015257
0.59659004
-1.066697
0.6267539
0.034132447
0.033741754
0.6800893
-0.8094545
0.8753336
0.30809557
0.660584
-0.84036326
-0.5137998
-0.37505472
0.5064672
1.0650581
-0.14546399
-0.3584122
0.043654755
-0.42158842
0.88872504
0.34956133
-0.5440061
-0.36685622
0.07868552
0.8674238
0.908918
-0.7563503
0.30196536
-0.23868263
-0.97217095
-0.6638564
-0.8071021
-0.31487978
-0.8523282
0.51803076
-0.7731507
0.8666477
0.26897442
-0.7932875
0.4233191
0.61785555
-0.35453248
0.16169095
0.89305043
0.5782018
-0.15566862
0.31903255
0.6285566
0.6803745
0.69848764
-0.82554674
-0.72096896
0.13189995
-0.17128062
0.7165291
0.0051817447
0.21631546
0.15060575
-0.052930877
0.5540677
-1.1784385
-0.92262673
0.07003999
-0.16327298
-0.4048925
-0.35388535
0.16835947
-0.028288841
0.40551102
0.674634
0.1610286
-0.0537014
-0.83477104
0.21693087
0.13239877
-0.85391706
0.65245277
0.66056365
0.3328801
-0.25388387
-0.92025447
-0.49059358
0.4997191
0.7069267
0.71935767
0.020553512
-0.6629016
-0.026932197
-0.6582308
0.3047849
-0.8114207
-0.44390643
0.39180505
0.7174895
0.24415465
0.15736683
0.46134108
-0.6016131
0.30738866
-0.26213443
0.067885876
-0.51687217
-0.5757396
-0.4076165
-0.12756193
-0.2230022
-0.71350014
-0.71265984
0.7295284
0.0048850775
0.87133336
0.05678785
-0.27275324
0.36956096
0.6272141
0.3354106
-0.9796436
-0.8206202
0.87698984
0.18569958
-0.73295116
-0.15433443
-0.6416184
-0.373891
0.93736136
0.17936647
-0.8148618
0.19603002
0.66292
0.9973657
-0.62444603
-0.55866814
0.5438601
0.22370875
0.69919693
-0.9583031
0.42616916
-0.436221
-0.8650279
0.5299938
-0.6758295
0.14519191
-0.43245566
-0.99232733
0.007570982
0.7442274
0.4844358
0.0030936003
-0.67418206
0.1185385
-0.9611851
-0.7524837
-0.9639106
0.09451234
-0.26464674
0.28312507
-0.92703384
-0.7589378
0.6571601
0.6272314
-0.6080831
-0.3877639
-0.98489475
-0.11421533
-0.61477286
0.051041167
-0.8413196
-0.54092985
-0.03462243
0.590986
0.485924
-0.936319
0.6986946
0.52377176
-0.7664519
-0.3080992
-0.077897355
-0.5407504
-0.8234663
-0.84351194
0.26171613
-0.39688027
-0.86536276
-0.12925577
0.57708347
-0.6806848
-0.055077076
-0.13120782
0.66567135
-0.0936743
0.94185233
-0.3138554
-0.42634523
0.26204002
0.47524643
-0.36380017
0.57127094
0.8822607
0.13222504
-0.7953962
0.3706553
0.15775788
-0.39059913
0.74250376
0.20406616
-0.59131837
-0.040360928
-0.095205545
-0.9401237
0.5096451
0.7233803
0.91496086
0.21804464
0.5814202
0.61386526
0.039764047
0.86763
-0.8952277
-0.71914244
0.7517549
0.864153
-0.7214179
-0.7928313
-0.39637792
-0.661602
-0.39061308
-0.86881053
-0.47483635
-0.949036
0.975405
0.32775903
0.3018905
0.15516138
-0.071199656
-0.43369624
0.6558911
-0.15241142
0.24048857
-0.79714054
0.40789428
-0.37985203
-0.11142869
0.41075554
0.46854773
0.25439432
-0.6382378
0.43025592
-0.766661
-0.99855375
0.5925851
-0.5086876
-0.28498018
0.65477943
-0.36957097
0.96550333
-0.6507729
0.4448024
0.6746775
-0.2825309
0.7921938
-0.73807395
-0.04601133
0.59325993
0.66424954
-0.04288566
0.5848378
-0.29858005
0.58232284
-0.91279674
-0.32562685
0.46460092
-0.99915266
0.08657801
-0.9633442
0.3556429
-0.59136856
-0.51785517
0.7346746
0.44803178
0.9047065
-0.64335895
-0.20793355
0.22879267
0.72598696
-0.8559065
0.66829634
-0.9792763
0.08192837
-0.7452184
0.070489645
0.47517014
-0.14427745
0.6257976
0.27674103
-0.7826971
-0.9213747
0.6338477
0.043376923
0.30036664
-0.674283
-0.14779699
0.3173951
0.75711834
0.60095835
-0.24717307
0.11148906
-0.5145608
-0.80871904
-0.076931715
0.04023707
-0.11308932
0.2193327
-0.13444829
0.9610611
0.16422884
-0.9106578
0.5679068
0.99246794
0.70431596
0.108657286
-0.74001724
0.75632685
-0.586731
0.71794397
-0.97977597
0.15270619
0.76872116
-0.052652676
0.95742726
0.24978352
-0.58920324
0.93482864
0.79070735
-0.83872867
-0.34069395
0.13075256
0.89991367
0.077628136
0.9314257
0.73360455
-0.15530479
-0.8190638
-0.1936028
0.05067849
0.3861425
-0.9428214
0.76516354
-0.017187476
-0.9729941
-0.24753344
0.40064192
0.35072732
0.75987685
-0.08627057
0.28408527
0.002521515
-0.772547
0.90170527
-0.52462065
0.7877525
-0.0881685
-0.4613278
0.8275174
-0.19468796
-0.25644982
0.7103169
0.36138606
0.61320233
-0.9750134
0.616765
-0.1638478
-0.85723567
0.5720935
-0.42031562
0.62898743
0.23362887
0.17496681
0.25933862
-0.26214886
0.37558544
-0.050727367
-0.5023997
0.36110985
-0.6820837
0.8912604
-0.8584517
-0.52735174
-0.37503982
-0.64065504
-0.24003792
0.14185905
-0.5105287
0.591694
-0.4343928
0.24173105
-0.33535525
-0.55521876
-0.1952519
-0.50128955
-0.72518533
-0.07829316
0.8582558
0.5749338
0.5778536
-0.22374125
-0.9167989
-0.29751453
-0.9242162
-0.5383098
-0.44037127
-0.8663795
-0.670262
-0.72143507
-0.7769774
0.807606
0.59056103
-0.9904797
-0.028269649
0.8003236
0.095989704
0.2591449
-0.86875963
-0.39359283
0.3297248
0.7026093
-0.19088304
0.5543288
-0.56008565
-0.5512223
-0.86065197
0.7746737
0.65658283
0.61224365
-0.06998694
0.39145994
0.24463725
0.2391187
-0.18924332
-0.09856665
0.12661278
0.1251775
0.42547512
-0.88085115
-0.31566918
-0.6099888
0.6109538
0.3248403
-0.19068551
0.42131066
-0.29473233
-0.75764525
-0.5423895
0.87966704
-0.7168559
-0.26320398
-0.25371492
0.66299963
0.6430212
-0.6467539
-0.991732
-0.71622896
0.47729552
-0.6274595
-0.2674005
-0.86931694
0.32956088
0.4473157
0.522954
-0.905051
-0.05192077
0.26745236
-0.79572845
0.47114122
-0.46787477
0.41085994
0.122363135
0.73191744
0.46726564
-0.45819625
0.17276542
-0.5311578
0.5685082
0.5595148
0.8520029
0.63809294
-0.51122016
0.96529716
0.86829835
0.3075459
-0.020930886
-0.44511807
-0.16962552
-0.16786611
0.55950475
0.15653312
0.036682367
0.15819883
-0.8843982
-0.71423364
0.22713101
0.5485518
0.48677278
-0.31115198
0.6804304
-0.8886465
-0.43455672
0.3733728
0.62059116
0.19428587
0.35342848
-0.8976618
-0.5570799
0.96578467
-0.8101709
-0.15612733
-0.2767018
-0.25261927
0.6137819
-0.6372336
-0.19503045
-0.8078203
0.47989178
0.20957899
-0.5334523
-0.062918544
0.7091296
0.661834
-0.20333719
-0.49036455
-0.080253005
-0.29054642
-9.381771E-4
-0.930153
-0.09110105
0.6191263
0.022766113
0.9444196
-0.9049816
-0.21798539
0.28200877
-0.7962525
0.4136207
0.92461944
-0.5416523
0.98458123
-0.6035267
-0.021529794
-0.3479879
0.5240878
0.1485002
0.25164258
0.69191074
-0.49936092
0.34226632
0.47116756
0.9757445
-0.7640162
-0.8685716
-0.12630196
-0.92346317
0.47170392
0.77860814
0.07220499
0.8341461
0.06507568
-0.1830792
-0.16537626
-0.40468416
0.2381146
0.51758444
-0.7506046
0.5513402
0.54525566
0.39735067
-0.2500986
-0.84466314
-0.0044744015
-0.6681024
-0.988737
-0.17750883
0.6729555
0.68570006
-0.6417922
0.49550092
0.55258584
0.650692
-0.2694286
0.19736302
0.2202915
0.90899277
-0.20431972
0.926478
0.9927902
0.7862525
0.98495483
0.7400918
-0.9753839
0.509009
-0.7687514
0.71669376
-0.18671787
-0.9292463
0.3160448
0.81319594
0.91019297
0.8772408
-0.019825578
0.09671533
-0.64274895
-0.10671604
-0.55702674
-0.87697875
-0.45209348
0.8434248
0.50376034
0.5749091
-0.08671415
0.3012799
0.9134761
-0.08414483
0.5218742
0.6921382
0.8067739
-0.459486
0.72417605
0.56682
0.43557906
0.52838075
0.14721298
-0.500489
-0.3398639
0.9759698
-0.67070425
-0.08293855
0.2051121
-0.6268996
0.17110074
-0.33782467
0.8049348
-0.49146757
0.15883355
-0.5105869
0.42905477
-0.121200874
0.38965502
-0.36677894
0.83490115
0.0019793937
0.1048516
-0.5040456
-0.057939768
-0.09184897
0.4261204
-0.91519284
-0.19218862
0.4222144
0.91302216
-0.43234658
0.3229915
-0.26125467
-0.5590322
-0.015067935
0.8025645
-0.19343841
-0.32891655
0.2983247
-0.7588717
0.8213229
0.38296032
0.40580904
0.61706746
-0.17539668
-0.5864948
0.11889982
-0.10422921
0.21776557
-0.46007156
-0.72627366
0.5929309
-0.36102164
-0.08095229
0.8069675
0.36078846
-0.12610507
0.61145043
-0.27436507
0.15677881
-0.4419583
0.14676416
-0.82741
-0.5948473
-0.30369103
-0.69925714
0.2550794
0.08378506
-0.6822121
0.43771315
-0.23968804
-0.06716895
0.77952063
-0.4889623
0.4102397
-0.282359
-0.26128352
0.60378194
-0.23140717
-0.4298153
0.06910217
-0.36789715
-0.550581
0.4221617
-0.025993586
-0.668342
0.811725
0.12626803
0.24849546
-0.8845475
0.06438792
0.39325202
0.598575
0.94913065
0.6356268
-0.33879817
0.7015984
-0.4378127
-0.95042205
-0.37402642
-0.6157044
-0.46745765
-0.55227363
0.7200515
-0.9698061
0.88529027
0.6251923
0.30996537
-0.23514712
-0.42164695
0.13248444
-0.07558739
-0.2052604
-0.24139988
0.014880776
-0.78251064
-0.28558087
-0.9815836
-0.7020736
-0.43883324
-0.101012826
0.5275705
0.833704
0.7518847
-0.95246434
0.2277143
0.83488774
-0.9323591
0.3533585
0.03231585
-0.14030993
0.24023497
-0.006711602
-0.14507067
-0.53049874
-0.6153356
0.028954864
-0.61866415
0.8423662
0.78256154
-0.6949314
0.80038273
0.65078497
0.03378868
0.453529
-0.38530207
-0.85577786
-0.48912048
0.13791358
-0.527501
-0.96098423
-0.5278059
-0.29729557
0.40835392
-0.7838539
0.4649607
0.45862544
0.573105
0.84690344
-0.21141934
0.0041800737
-0.5033504
-0.8245536
-0.5423298
-0.1504314
0.09350705
-0.6655922
-0.8744
-0.2003926
-0.6720158
-0.9148456
-0.7187457
0.22524929
0.9474354
-0.13063145
-0.65084696
0.69828534
0.61896193
-0.07412028
-0.6030241
0.20148575
0.72357965
-0.86005354
0.43214464
-0.9912311
-0.06472826
0.7065679
0.854007
-0.35982203
-0.5904145
0.34120357
0.7800505
0.3489393
0.20291996
-0.3219105
0.59950554
0.23839068
0.62101936
0.45697582
0.2979188
0.2120403
-0.8586681
0.19366562
-0.4296831
-0.06133306
0.862952
-0.8804785
0.38319206
-0.6943656
-0.98976934
0.4027164
-0.0022397041
-0.5918095
-0.34155262
0.9532577
0.22600424
-0.017611623
-0.22491276
0.66979194
-0.78952956
-0.1323787
0.99739003
0.79522157
-0.19163036
-0.8539494
0.82133436
-0.6221694
-0.11371553
-0.8538717
-0.5092794
-0.26627398
0.81594896
-0.35706663
-0.31458127
0.6050589
0.18267906
0.9973501
0.8592901
-0.48199642
-0.6891588
0.3386705
-0.07883716
0.057433844
-0.5337235
-0.5682851
-0.05681348
-0.43453646
0.46111834
0.8319689
0.18279612
0.5936003
0.465456
-0.89624524
0.286525
0.5295118
-0.117418885
0.071531296
0.8814056
-0.30308163
0.5861224
0.63875294
-0.4656638
-0.8102839
0.22048569
-0.98072505
-0.64055324
0.32919025
-0.14080298
0.19126558
0.37232566
-0.71257854
-0.51624966
-0.05757177
-0.5716523
-0.25670207
0.52941537
-0.50123715
-0.45308018
-0.14624605
-0.6585773
0.91903865
0.32712746
0.03703797
-0.3514713
0.22683656
-0.3778479
0.5632796
-0.8990514
-0.29412067
-0.31465793
-0.5019798
-0.7979771
0.49812555
-0.43841302
0.69539833
0.41005373
0.24469256
0.9115622
-0.8804275
0.2769853
0.15531325
0.96761775
0.39691448
0.8588115
-0.22783375
-0.42102337
0.060175896
0.56976354
0.52925324
0.67209744
-0.08200359
-0.5892788
0.5559697
-0.35240984
-0.92098737
0.13557696
0.26648486
-0.6984657
0.2902233
0.91151506
-0.34623736
0.698002
0.057915807
0.6982578
-0.88389933
0.661276
0.7537898
0.036232114
0.008596301
0.9791999
-0.16035318
-0.93318737
0.48413324
-0.30186474
-0.47684634
0.3407495
0.05446303
-0.6059214
-0.824113
-0.75348675
-0.96566975
0.45644343
0.2531352
0.6301211
-0.14339471
-0.39182198
-0.36769795
0.6857389
-0.35260844
0.98254406
-0.025310755
-0.21327484
0.79652274
0.41340935
-0.013495922
-0.23419198
0.6406166
0.5981104
0.35212973
-0.43695948
-0.021866202
-0.6440103
0.024367929
0.11955881
-0.44527465
0.013547018
0.7316524
0.23877412
-0.51887435
0.84831727
-0.9071356
0.6554364
-0.22781408
-0.6487713
-0.43332088
-0.30570674
-0.45553505
0.7523993
0.5276365
0.2673912
0.2408702
0.74375695
-0.93186116
-0.6878915
0.6774882
0.69783247
-1.1038941
-1.0681448
-0.78046083
-0.84897137
0.7237892
-0.20462406
0.17794323
0.7902101
0.44208425
-0.013280705
0.6568813
-0.17892678
0.07839065
0.43729693
-0.4640879
0.8263506
-0.6398694
-0.9720805
0.16169524
-0.9985794
-0.9331925
-0.5878891
-0.45592463
0.8851857
0.19341052
-0.32679963
0.6240816
0.19597173
-0.6540712
-0.3109734
-0.9798968
-0.39057505
0.18617415
-0.12157786
0.58502126
0.6357914
-0.73680294
0.24159884
-0.07718766
-0.3201009
-0.97817266
0.7400669
-0.36857045
-0.10209942
-0.4682505
-0.5192932
0.45406258
0.055753622
-0.76941484
0.96323603
-0.55196196
-0.20366593
-0.6102697
0.3202882
-0.47012112
0.55612576
-0.89453113
1.1242366
-0.4525891
0.8456317
0.26440227
-0.14851838
0.57886666
-0.105570376
-0.15191972
0.8748493
0.08695996
0.7204218
0.513232
0.21495473
-0.7920865
0.5692899
-0.9493246
-0.004839465
-0.18368559
0.45518142
-0.98521644
0.57221234
0.8088224
-0.18433653
-0.9372355
-0.960178
-0.53392553
-0.9681207
-0.89260495
-0.5288833
0.33303493
0.74434096
-1.0927145
-0.7318664
0.014188692
0.90935856
0.738296
-0.20301063
0.9230861
0.7599451
-0.8844722
0.1496424
0.79719025
-0.84486854
-0.8293601
0.49936736
0.38216794
0.27212632
-0.5332546
-0.6759012
-0.29964626
-0.74653924
0.9676691
0.48674357
0.76572764
0.82702875
-0.62704206
-0.9516839
-0.7557658
0.5620594
-0.30680585
-0.7280481
-0.7938945
-0.25499773
-0.7994671
0.1364075
-0.66123605
0.9803841
0.73845446
0.3315101
0.35343984
0.12325207
-0.8649575
-0.62967795
-0.22461465
0.5077026
-0.57131356
-0.25176713
0.26500657
-0.21204828
-0.5777379
-0.76756364
0.08514579
0.27000356
0.43080255
0.5979173
-0.11768001
-0.69318885
0.5200227
-0.045050025
0.3683754
-0.94581413
0.060138196
-0.50908434
0.04532683
0.16215694
-1.0892885
-0.42939383
0.29128176
-0.6486949
-0.6851314
0.027609006
-0.24948238
-0.86313224
0.55103016
0.17237127
0.79697865
-0.79535633
0.17695981
0.55731386
-0.29391247
-1.0298543
0.017016217
-0.80020946
0.5593229
-0.48276514
-0.752238
-0.38093334
0.65718836
0.8155691
-0.34766585
0.21692233
0.051164556
-0.20663321
-0.3829459
-0.62562656
0.39600158
-0.8014716
-0.58149743
0.70779693
-0.67717683
-0.6409352
0.8099841
0.80171573
-0.2387886
0.39520013
-0.95382786
0.6149324
0.22658539
-0.4384079
0.322201
0.08938074
-0.70975435
0.77033734
0.20221674
0.7850331
0.45115533
0.013181512
0.58891636
-0.74167246
0.6243761
0.068984784
-0.91257256
0.5465573
0.026196336
0.15548332
-0.037980463
0.18704814
-0.5987067
0.30722833
-0.47239184
0.40498203
0.9444228
-0.34511065
0.1674225
0.8978213
0.110293046
0.61013925
-0.18049234
0.8718367
0.15139124
-1.0825638
-0.68360925
0.36507127
0.5885463
0.056148063
-0.24059975
-0.9005627
-0.9567513
-0.21699676
-0.5246123
-0.41315815
-1.0849346
0.730165
0.14116353
-0.61622113
0.18675894
-0.13642128
0.32796234
-0.051847648
-0.11101324
0.030486152
0.05340521
-0.6724804
-0.0073111802
0.03291452
0.56586754
-0.92286146
-1.1632947
-0.4448877
0.80172735
-0.45029968
0.7200648
-0.18228996
0.513729
-0.83447564
-0.3500954
-0.69935644
0.5450661
0.6414367
-0.68473005
-0.6680267
-0.45768034
0.5267428
0.650427
-0.8172976
0.40640676
-0.11727786
-0.96686924
0.7264333
-0.5208069
-0.9130589
-0.06660378
-0.097867966
0.031488538
0.6768916
-1.0488204
-0.846039
-0.0815038
-0.54599816
0.8948435
0.7178783
-0.15198283
-3.4403303E-4
-0.18776608
-0.42769888
-0.33515003
0.057649154
-0.7040704
-0.8161986
0.07179691
0.5665119
-0.32861185
-0.1278259
0.13000213
0.043869287
-0.03919874
-0.7273265
-0.530614
0.5279298
-0.78048414
-0.15423474
0.24043125
0.29651132
-0.8005292
-1.2899811
-0.36172682
-1.6433618
-0.19521001
-0.15403345
-0.882518
0.6006321
-0.13171345
-0.5904767
0.055506885
0.20750384
-0.8873306
0.8616182
-0.33679694
-0.084585615
0.7398743
-1.1273515
-0.78980553
-0.8750695
-0.65346646
-0.0983423
0.06698084
0.24871969
-0.5712662
-0.18090148
-1.136728
-0.09961099
-0.8069486
-0.546047
0.45440924
0.45475924
-0.73805094
-0.15224648
0.7577312
-0.5957942
0.92695284
-0.71901774
0.92306435
0.7933985
-0.20524311
-0.6715659
-0.99469423
0.5029758
-0.588709
0.41232848
0.24236739
0.86055684
-0.74450445
0.8651495
0.0107026445
0.43649596
-0.5007492
-0.49103054
0.020931665
0.6419374
-0.6026533
0.13314466
-0.50069916
-0.73621684
-1.0932657
0.62457037
-0.09805543
0.21807395
-0.68406326
0.31333566
-0.5728903
-0.8404381
-0.548391
0.08881575
-0.24398313
0.8960487
1.0344228
-0.5036534
1.1870838
-0.4485858
0.49426532
-0.09206163
1.010742
-1.0984626
0.098207094
-0.10608014
-1.4625053
-0.8007324
-0.9147728
-1.6979024
-0.2710924
0.1201627
-1.1090143
0.69352335
-0.07667902
0.67672145
-0.58586115
-0.73639756
-0.59591085
0.33292735
0.32447767
0.68099093
-1.0672857
-0.7002499
-0.1757431
-0.15526676
-1.14907
0.77738225
-0.9957846
0.49426168
-0.864055
0.17367333
-0.28213537
-0.17910004
0.18551111
0.1396544
0.90626454
-0.7800604
-0.95151484
0.9939929
0.13903105
0.5893743
-0.587741
-0.3215773
-0.8522178
-0.22312379
0.7920244
0.4429407
-0.83646905
-0.06148982
0.57022417
0.13666308
-0.9267883
-0.8641084
0.435609
0.7112872
-0.4612306
-0.29139373
0.48281315
0.16412663
-0.8352366
-1.1305255
-0.44816777
0.15740497
-0.012521143
-0.6764724
0.86816573
-0.05216311
-0.20662417
1.6714451
0.5543336
1.3586496
0.84872925
-0.0029723644
-0.60013884
0.92657876
-0.50615376
0.975242
1.0439272
1.3827718
-0.52463686
0.448103
-0.045296744
1.2150604
0.5132672
0.26985076
-1.177257
-1.4030025
-0.45317757
-1.5821487
-1.6264173
-0.039126113
0.46733308
0.23979668
0.39960083
0.067737445
-1.0433394
-0.66918063
-0.13053882
-0.43232417
0.38328552
0.55832636
0.5275129
0.6798729
-0.5391623
-0.039212465
0.5561873
0.12893383
-0.21424504
-0.5767054
0.26662976
-1.1792896
-0.90346086
0.6072035
0.9857391
0.2014004
0.49418497
-0.43384922
-0.25424564
0.87781584
-0.77010345
0.8086134
-0.21752274
-0.10197115
-0.74978864
-0.39287984
-0.40269148
-0.15675437
-0.7811434
-0.37792206
0.84097517
-0.6052025
-0.5784547
0.14766589
0.64127773
0.46936303
-1.0070518
-0.1310601
-0.038883895
-0.903325
0.6039489
0.121949635
0.55802745
-0.37736169
0.16723944
0.13916583
-0.6965734
0.8748279
0.8886205
0.74069095
1.3054624
0.26623172
0.727635
-0.1128868
-0.6798021
0.35447073
-0.19428873
0.86698925
-0.80429566
-0.6115827
1.1427758
0.90690213
1.1694877
-0.07784136
-0.16139497
-0.20401742
-0.56591326
-1.0918477
-1.6485794
-1.7407136
-1.8453431
0.12184061
0.40183264
0.6159602
0.6644115
0.65433115
-1.0306777
-0.647956
-0.07623863
0.40812612
-1.0410345
0.7938539
0.64319956
-0.7505667
-0.23156548
0.8622147
0.17240882
-0.9583971
-0.93313485
0.5393488
0.34240144
0.8028079
-0.87465763
-0.010954261
0.2352798
0.32397473
0.07329023
0.90038097
-0.538321
0.30633867
-0.7365204
-0.15633607
0.45443702
0.6854389
0.6341101
-0.3367139
-0.59324133
0.083942056
-0.11880803
-0.22021437
-0.22316143
0.6304522
0.80113477
-0.71467966
0.079869546
-1.024752
0.5173942
-0.9787128
-0.8690144
-0.1075609
0.04157046
-0.41732666
0.08544708
-0.86854726
-1.3869559
0.53845537
0.34729826
0.6597136
0.94598
1.67867
1.5469277
1.2159029
0.08959508
1.1855276
-0.3205868
1.2016429
-0.41476518
0.5685342
0.54173076
-0.47237226
0.5819374
0.92829645
1.0806868
1.099897
0.734539
0.34966555
0.1866958
-1.3178595
-0.91392124
-1.1953732
-0.41603708
-9.775013E-4
0.25113812
0.37744787
0.45727727
-0.960426
-0.7450024
-0.85902584
-0.79898715
-0.19501853
0.3227682
0.17046583
-0.08091545
0.6002333
-0.1388663
0.22933841
0.57889324
0.46087545
0.09668416
-1.0968084
-0.7517366
-0.3850155
-0.23223507
-0.77354014
-1.0438838
0.6148081
0.28839076
-0.60622895
-0.6675205
0.7627865
0.6645918
0.3127494
0.78390515
0.5469582
-0.574504
-0.505854
-0.7251593
-0.120523095
0.66869855
-0.16995192
0.22978643
0.20349136
-0.8096619
0.9274681
-0.4881928
-0.6858727
-0.027451009
-0.80720615
-0.26990834
-0.083981134
-0.29915747
-1.3170455
0.6011473
-0.01394446
0.4819681
-0.51402
-0.66143984
-0.29908523
1.1303542
1.0557771
-0.14578922
1.4342273
2.015533
1.4730422
0.92069745
0.57907695
1.802169
1.0004842
-0.05337583
-0.35788175
0.4316552
1.2009709
1.3303316
0.92045623
-0.19278578
0.9508104
0.567371
-0.42297205
-1.208989
-0.8668511
-0.7865546
0.32283342
-0.721124
0.24936733
-0.046816945
-1.0492107
-1.1035173
-0.98055
0.27618408
-0.93530416
-0.33578122
0.89914846
0.23307872
0.19873857
0.148139
0.39544183
-0.23425837
0.55896384
0.11954445
0.45581764
-1.0531182
-0.005287051
0.6447185
0.2412014
-0.02987814
0.54235053
-0.38638842
-1.0745718
-0.54154015
0.616573
-0.45463395
-0.5356381
-0.9735402
0.09190297
-0.5656407
-0.8902371
-0.768793
0.72290874
0.6580987
-0.8720195
0.80529994
0.21745875
-0.63885576
0.2940078
-0.08808875
0.034851104
-0.71997964
0.020835444
0.7261429
-0.3577648
-1.0259422
-0.49539176
0.06605432
-0.7259554
-0.4982345
-0.8209648
0.29276505
0.6918999
0.8228403
1.0806167
0.48226282
0.15274431
0.7260468
0.96727186
0.48837453
1.3075252
0.8241972
1.0098614
0.92041767
0.068529464
-0.080048956
0.39982927
0.58656234
0.6408502
0.3741546
0.6454266
0.20813656
-1.4704939
-0.23091038
-0.604192
-1.6957343
-0.6455385
-0.343891
-0.73557067
-0.3342702
-0.63272876
0.5326505
-0.63516825
0.15587059
-0.66357607
-0.5214769
-0.74110824
0.57565546
0.46419513
-0.64084595
0.44513863
-0.43603343
-0.04054303
-0.96709746
-0.0056738853
0.031877875
-0.36384487
-0.43901098
-1.1162567
-0.2737409
0.6106136
-1.0305991
-1.180126
0.31530583
0.3569368
-0.05314076
0.5343349
0.20667076
0.6316924
-0.47882605
-0.4370402
0.030888438
0.4996786
0.7480681
-0.33371806
-0.1992949
0.37507764
0.5379811
0.3567553
-0.80793166
-0.017967433
0.3269311
0.28403375
-0.6658435
-0.3877475
0.32625
-0.28540847
-0.29350132
-1.0023484
-0.5950556
0.9070155
-0.7330679
-0.11514
0.95506215
0.5002384
-0.5821755
0.22122388
0.16899939
1.1623588
0.39905107
1.254634
0.51430804
0.42578116
1.261912
0.7793054
0.5931016
0.74072
1.4777535
1.1955973
0.54898566
-0.11714602
0.4094606
-1.7738948
-1.0699826
-1.8740674
-2.008835
-0.19555177
0.41517034
-1.1973917
-1.0450424
-0.17387038
-0.06718694
0.6549933
-0.3073367
0.4655303
-0.91166025
0.42741325
-0.8535145
-0.67213726
-0.008746099
-0.3658623
0.036348153
-0.30763024
0.27824438
-0.62112236
-0.5937561
0.73020256
-0.5179931
-0.07747662
0.1737616
0.61631703
-0.33615732
-0.8963059
0.31300402
0.6469928
0.6598773
-0.07420802
-0.38173807
0.7434194
-0.47104132
0.86342955
0.09992182
0.5912502
-0.24424362
-0.7252228
0.4346441
0.755262
0.9384819
0.5709975
-0.65801346
-0.11246053
-0.91774213
-0.76726407
-0.69012547
-0.081450045
-0.18950218
0.78737456
-0.9088408
0.19014663
-0.5361001
0.81930166
-0.34795794
0.20479053
-0.638166
-0.4251066
-0.33221364
0.87572414
0.13449575
1.241541
1.1214774
0.40234402
0.5724211
0.07480701
0.68494004
0.86251533
0.635044
0.8748968
1.302523
0.4967864
1.3294502
0.8532397
-0.8650144
-1.2222483
-1.6065019
-0.8787779
-0.6471382
-0.48672378
-0.24708511
-1.2312965
-0.6937816
0.21464454
-0.48749256
0.15254423
-0.16975771
-0.61055535
0.29967612
-1.0837783
-0.6716463
0.16427906
-0.32878608
-0.65688175
0.08550721
0.26992065
-0.6462858
0.67355907
0.6324587
0.845652
0.070013165
-0.3419628
0.92764044
0.20373034
0.2720976
-0.060482383
0.0042585135
-0.15672398
-0.21091306
-0.9052162
0.18181682
-0.50679016
0.56995463
0.23229945
-0.4720255
0.28892946
0.76050127
0.4514265
0.844244
0.45694494
0.23526895
0.6857798
-1.1102904
0.79169965
-0.410708
-0.8982996
0.046600096
0.73108035
-0.069729075
0.010858309
-0.2776681
-0.80113196
-1.2829067
0.3356506
0.7826791
-0.2860701
0.9939919
1.0187484
0.97599936
-0.76483554
-0.17767456
1.3592721
0.4726017
0.060571384
0.66632986
-0.088700555
1.7790033
0.22834474
2.3334255
0.48777828
1.0254984
1.1711261
1.3792577
0.560909
-0.21632046
-1.306729
-0.061024055
-1.464467
-0.47490698
-0.86329615
-0.61109
-0.17052817
-0.7348751
-0.82265455
-0.29249403
-0.3915203
-0.1469127
-0.18612424
-0.14642301
-0.50956243
-0.5996994
0.12258217
-0.20762427
0.64354175
0.70077056
0.57730496
-0.06849887
0.057829596
-0.36527207
-0.1982683
-0.976411
-0.7054148
-0.7969228
0.46750724
0.66313136
-0.43009424
-0.88126624
-1.0485954
0.72447646
0.5244272
0.38659155
-0.485314
-0.04402256
0.20496178
-0.54047227
0.83817875
0.6087972
0.45761955
0.8265548
-0.44495225
-0.5221739
-0.60925305
-0.51717496
-0.13546851
-0.0017424921
0.68789715
0.70038795
0.546181
0.10110691
0.3227692
-0.0064147413
0.685193
-0.6635425
0.14545819
0.031722397
-0.98239255
-0.46710354
-0.25800717
0.33104917
-0.36452937
-0.32701033
1.1460655
1.2115719
0.70609933
1.4307135
0.2824791
-0.49173886
0.51112515
1.0100356
1.8511044
0.6487953
-0.12888843
1.5606722
-0.115573235
1.0570155
-1.1604258
0.3186115
-1.5645074
-1.6933293
-0.29492348
-1.2218847
-0.7304788
-0.9307216
-0.19035928
0.5315521
-0.1752169
0.72007006
-0.3501934
-0.6618411
-0.54332566
-0.6207316
-0.44630495
-1.0145231
0.8571746
-0.43064848
-0.2199631
0.605525
0.94785595
-0.96359205
-0.22351387
-0.94015193
-0.5672878
0.030472517
-0.050858974
0.5177748
-0.3009491
-0.805223
-0.33706152
-0.3157735
-0.32964396
0.04299605
-0.36215663
-0.43848968
0.5899842
-0.264817
-0.06626439
-0.005419135
0.81056285
-0.1991942
0.3138883
0.5135124
0.05733788
-0.30650476
0.69731045
-0.6968463
0.3761341
-0.86212224
0.17095533
-0.60483605
0.1902093
-0.34441128
-0.17618327
-0.19260578
0.12928873
-1.0851264
-0.046793386
-0.19980074
0.21745679
-0.63866246
-0.42739332
0.7534215
-0.26740533
-0.591555
1.2006346
1.0095223
-0.29990524
-0.400793
-0.22245678
0.11260749
0.961466
0.15612195
0.0770753
-0.21608675
-0.55408424
-0.862911
0.11381955
0.18141998
-0.56868786
-1.0307612
-0.0052242544
0.20800461
-1.2646834
-1.0591885
-1.4641867
0.07856569
-1.0046982
-1.1442708
-0.34342286
-1.1675029
-1.2953982
-0.9777137
-0.80361533
0.21427302
0.9983854
0.28466246
-0.07247367
-0.8574749
0.4195908
0.06821296
-0.42272666
0.05303824
-0.2801832
0.4974904
0.14679933
0.37718034
0.3750881
-0.28482938
-0.28615892
-0.7019597
-0.73970056
-0.42769277
-0.7363435
0.9085983
0.79191077
0.13465226
-0.014150262
0.02889824
0.80557454
0.96805406
0.10335243
-0.55321634
0.33215743
0.6467842
-0.36521533
-0.053120982
-0.5045738
0.5380873
-0.9728924
-0.033799328
-0.37344554
0.72512156
-1.092122
-0.65172887
0.27805376
-0.100525215
-0.6154777
0.93808174
0.85689855
0.3964141
-0.20185204
0.20088473
0.5384115
-0.13931935
-0.60586804
0.7594908
0.2751496
-1.0564435
-0.3423406
0.053869262
-0.7651128
0.69214207
0.25206304
-0.055523243
0.1538495
-0.7128724
-0.62689054
0.052844055
-0.24231896
-1.1377013
0.077561826
-0.98681337
-0.21931033
-0.7087224
-0.5544594
-0.21267506
0.11521386
-0.33061677
-0.29870367
0.58898294
0.7600057
-0.28247255
0.62194
0.59674793
0.36175776
-0.13731864
-0.5309371
0.4717073
0.38749966
0.34486625
-0.69672
-0.8311479
0.38707578
-1.0053383
-0.1905942
-0.23926389
-0.86917126
0.34847414
-1.0601606
0.5650871
0.8305979
-0.93982446
-0.82027614
0.762606
-0.4942317
-0.9270046
-0.022048712
-0.28698862
0.20109963
-0.85521924
0.9631345
-0.82431257
0.84033126
-0.42459062
0.21835601
-0.04128958
-0.6111815
0.15953852
0.75280935
-0.58483505
-0.37527183
0.028316569
-0.11741734
0.06380889
-0.89451635
-0.7896359
0.5280096
0.7116379
-0.46626985
0.43686903
-1.176338
0.5415729
-0.048995957
-0.1375935
-0.20948721
-0.20661823
0.9169609
0.44394147
0.95827967
-0.17803241
0.24516311
0.52895004
-0.70614785
-0.18203124
-0.7217462
-0.045000028
-1.4556193
-0.0844214
-0.09337095
-1.0427399
-0.40652886
0.03343443
-0.102757595
-0.86944026
-1.3349779
0.08467927
0.18887699
-0.61030275
0.18709625
0.06273274
0.17830117
0.7674204
0.14184892
-0.80696803
-0.21350704
0.81378937
0.36187527
-0.9837228
-0.63898814
0.17601666
0.07113025
0.23841429
0.71016526
-0.32867098
-1.1350524
-0.6074991
-0.3592707
0.39752078
0.09899759
-0.07461226
0.88247013
-0.19951153
0.012265682
-0.47209632
-0.7089118
0.101668
-0.76393795
-0.77098715
0.6992563
0.24700141
-0.7396363
0.5446886
0.75666016
0.10185898
0.3105284
0.78818864
0.07954583
0.3869319
-0.3134109
-1.0054575
-0.08026992
-1.1942111
0.5591472
-0.40986082
0.48703644
-0.5989778
0.6466365
-0.11085613
-0.83545667
-0.8623678
-1.4850363
-0.20128286
0.09288339
-0.28398907
-0.10739647
-0.3720817
-0.26454723
-0.42456883
-0.6803362
-0.3848285
-0.945027
1.1698049
0.15969838
0.16230485
-1.5793308
-1.2584145
-1.1248107
-0.03252036
0.7409091
-1.07999
-0.6296569
0.27221817
-0.16706674
0.42338628
-0.852312
-0.39358097
0.7457787
-0.99500644
-1.0348012
-0.96659124
-1.0879025
-0.85026455
0.12850833
0.8754224
-0.60474974
0.48204505
-0.026121259
-0.14280966
0.48778126
-0.035740636
-0.6967261
-0.51897645
0.3169371
-0.6517234
0.98844814
-0.7297628
-0.34809113
-0.9433714
-0.9681866
-0.49098086
-0.45915592
-0.44384754
0.009786606
-0.76745915
0.03325808
-0.93406045
-0.06973839
0.46200585
0.35472822
0.9014509
-0.61407554
0.1528908
0.5023838
-0.8504701
-1.0290496
-0.5005205
-1.0836868
0.7024974
-0.8696158
0.17669836
-0.9208847
-0.99752665
0.06799284
-1.3729895
-0.5648725
-0.7302671
-1.1111158
-1.0515637
-0.88732046
0.79400367
0.7988568
0.100582704
-0.5794505
-1.5367619
-0.91498035
-0.41778415
-0.7743101
0.20455436
0.49999917
0.5976168
-0.28802532
-0.6434739
-0.24687837
-0.19931789
-1.1666602
-0.9674274
-0.12261621
0.23656802
0.9430463
-0.9877214
-1.0516167
-0.47011766
-1.058405
-0.44514704
0.0603974
-1.179442
-0.9995526
-0.4160941
0.5243597
-0.065806806
-0.6977269
0.48370096
0.34013677
-0.94326454
0.7902358
0.77382
-0.5308763
-0.4828557
-0.10947385
-0.45922306
0.4057221
0.98971224
-0.6204673
0.7287158
-0.61019194
-0.5539882
0.4470259
0.5790905
-0.77084756
0.3019626
0.09856367
-0.7366427
0.3537165
0.3909732
-0.19998562
-0.7297518
-0.3714769
0.66791415
-0.45518696
-0.8395939
-0.06521273
-0.643283
0.32536688
-0.91553694
0.65435284
0.49027056
0.0805156
0.8085934
-0.1240008
-0.92381746
-1.1494458
0.3271689
0.11881666
-0.6221492
-0.34083292
-0.12837887
0.4986058
-0.3184039
-0.7855618
-0.78602964
-0.7738804
0.5900655
-0.29040664
-0.24278049
-0.33333796
-1.4095144
-0.057583194
-1.0969547
-0.19354428
-0.35448438
0.19057469
0.29094645
-0.16014035
-1.7900778
-1.3932582
-1.4217993
-0.11783165
0.06900004
0.19928713
-0.9720367
-0.21182078
0.65288603
0.45371553
0.6767704
0.92943835
-1.0711192
0.69606817
-0.65158445
-0.34821418
0.7700708
-0.45919827
0.6592568
0.30560353
-0.15628287
0.5125292
0.6447697
0.88690007
-0.3461298
-0.19474009
0.79016626
0.15440258
-0.10631442
0.41907716
-0.48091972
-0.80793846
0.98266125
0.59682834
-1.0434945
0.3783319
0.56275475
0.3287834
-0.59411705
0.6913403
-0.46609735
0.10089016
0.5030508
-0.27677202
-0.2990141
-0.3665589
-0.20329046
-0.68433964
-0.49389052
0.021523869
0.18923062
-1.1992998
0.3992669
0.3382073
0.7095376
-0.5316231
-0.62079346
-0.19958782
-0.65554845
-1.0546639
-1.3373978
-0.29004523
-0.9931487
-1.3560433
-0.40709144
-0.64989805
-0.56245184
-0.86876124
-0.43171906
-1.0082022
0.25519687
0.037322696
0.22117282
0.8366635
-0.5437872
0.08716924
-1.0223547
0.68588966
-1.1046737
-1.5108798
-0.18714671
0.47726685
0.17217712
-0.23712867
0.5172121
-1.1881799
-0.576136
-0.79946554
-0.2046198
-0.78723884
-0.038870562
-0.47850722
1.1177402
0.58867246
-0.6083227
-0.35320574
-0.6365883
-0.29401317
0.30783072
0.44412017
0.7722772
0.2909111
-0.01867982
-0.5156819
-0.5482092
-0.47127298
-0.5839883
-0.38955632
-0.38829684
0.7604356
-0.13857138
-0.55495274
0.029854894
-0.7398102
-0.78848755
-1.0423344
-0.84599686
0.9483645
0.7860141
0.08633113
-0.3057052
-0.942572
0.27273417
0.050675392
-0.28494954
-0.03802347
0.15555382
0.23527455
0.9533131
-0.44471464
-0.9294631
-0.61213416
0.36634785
-1.080363
0.2914765
0.76941884
0.1028503
-0.07259697
-1.5638211
-1.0512192
-0.46932542
-0.5172396
0.01104629
-0.65497506
-0.7331296
-0.044877738
-0.53154016
0.46444696
0.07537554
-1.3834679
-0.003692254
0.36874774
-1.0136511
0.3109001
-0.11195952
0.2926821
-0.8135801
-0.8241589
-0.8476165
-0.25712925
-0.48586774
-0.24144301
0.14395846
-0.36457682
-0.09110851
-0.504279
-0.12918721
-0.6221707
0.2115541
-0.40237367
0.67149335
0.8971863
1.1680965
-0.8658106
-0.41510066
0.5254338
-0.2055996
-0.17844635
-0.8973586
-0.6231029
-0.1957508
-0.66248614
-0.28842494
-0.8188682
-0.99889696
-0.31714538
0.19876847
0.8857466
0.11046636
0.19508064
0.15370214
-0.85495853
0.6541488
0.7894417
-1.0945097
-0.55021656
0.7827327
-0.8849149
0.91862285
-0.91780174
0.63863516
0.49197364
0.106146574
0.523896
0.752594
-0.7003876
-0.9604063
-0.99738467
-0.12669563
0.8369317
-0.8979003
-0.48285633
0.3094465
-0.09084335
-0.8573215
-0.85502356
-0.68773013
-1.0208756
-0.7539504
-0.12761281
-0.80214715
-0.5795047
-0.8508249
-0.42418677
-0.9443702
0.03978327
0.28282034
0.5226114
-0.8187974
-0.08441367
-0.70207924
0.65147036
-0.52509564
-0.19278634
0.080626346
0.5862534
0.12325593
0.7356843
0.4252627
-0.9962525
-0.040509164
-2.4514036
-1.2149298
0.22049679
1.2300953
0.946467
1.164196
0.77790016
0.5213754
0.35274446
-1.1665078
0.55645525
1.1697001
0.091321886
0.30792972
0.2803644
0.7349844
-0.5219051
-0.84327984
-0.45026
0.72888356
0.5887496
-0.20357642
-0.77470964
0.4533516
-0.19596615
0.5975176
0.5728971
0.58207107
0.8147888
0.6596365
-0.15944445
0.36676085
-1.1011819
-0.03721404
-0.75596094
0.54385006
-0.8535409
-0.4200319
-0.92603743
0.13248765
-0.5571406
0.2613157
-0.9009149
0.13571417
0.38617396
-0.39605618
0.09841347
-0.56507206
-0.585407
-0.49562773
0.6019102
0.38221768
0.028320238
-0.9504431
-0.9043011
-1.497463
-0.15672484
-0.8429484
-0.25193644
0.12731332
0.24630868
-0.4050036
-0.71517825
-0.87504476
-0.024932593
-0.6632122
0.11788438
-1.3046718
-0.30879807
-1.3235836
0.5116617
-0.34275088
-0.5012119
-0.44471678
-0.29179794
0.52689373
-0.40928006
-0.4693128
-0.95080197
-0.93182594
-0.4189569
-1.0067054
1.9729464
1.1257764
-0.3376617
0.5387257
0.6146315
0.59571505
-1.3652333
-0.22302566
0.6721381
0.27847955
1.2963383
-0.64287615
-0.6212884
-0.3372054
-0.38979807
0.76778483
0.14628819
-0.24658632
-0.73192865
-0.54373497
0.37453246
0.13791788
-0.23495749
0.047155477
-0.8246248
0.45459306
-0.15600598
0.7147956
0.6347221
-1.0165377
-0.84617853
-0.58696604
0.79831505
0.20056272
0.51307416
-1.0921339
-0.51164377
0.0294168
-0.88620627
0.70591223
-0.104034305
0.073017836
0.70014083
-0.26237214
0.9552058
0.3618046
-0.6612588
0.16266564
0.22974828
-0.7234503
-0.9899447
-1.0610732
-1.0481739
-0.073305875
-0.4154747
-0.019664213
-0.7690958
-1.0303073
-1.447947
-0.26832145
-0.009304792
-0.40221947
0.80258167
-0.8754561
-0.53566426
0.34370336
-1.2283762
0.59265417
-1.0740409
0.29404896
-0.9577089
0.21714105
0.29641682
0.41923648
-1.3845617
0.17626359
0.5502246
-0.13854735
-1.1192584
-0.8640506
-0.11568511
0.16647418
0.37087166
-0.09096343
-0.4716804
0.23795119
-0.38752416
0.12165475
0.0067838975
-0.5941187
0.34118703
0.10749195
0.4975989
-0.52667457
-1.1572032
-0.5044509
0.50693107
-0.20090985
0.6544233
-0.2447221
-0.29583335
0.05630017
0.03742168
0.8025813
0.33751643
-0.85013723
0.603611
-0.99471056
-0.3956561
-1.069589
-0.960675
0.15312839
-0.86945856
-0.13418007
-0.435979
-0.14543855
-0.86204565
-0.7226782
0.7652656
0.71302354
-0.20760536
0.39652276
-0.915298
-0.09196019
0.39328206
0.42207086
0.9569745
-0.21475741
-0.7316568
-0.46600518
-0.4437176
0.7191751
-0.06977114
-0.10566872
-0.89966404
0.2015652
-0.35262346
-0.6347638
-1.6126832
-1.0690279
-0.10187199
-1.3655983
0.32634008
-1.1076132
-1.0934013
-1.172355
-0.56836224
0.7202666
-0.42666745
-0.81304234
0.451156
-0.19634652
-0.52782696
-0.67720056
-0.19229849
-0.88894355
0.1805511
-0.5968337
0.074456416
0.46998048
1.2891887
0.124461904
0.48880497
0.048101272
0.12488226
0.29599807
0.26312596
-0.6616223
-0.39602616
-0.2503877
0.89407074
-0.079696216
-0.5993368
0.5532974
-0.07973351
-0.48910487
-0.7068093
-0.18108758
0.5438193
-0.7312483
-0.11498223
-0.5262823
0.19748402
0.68248534
0.2101804
-0.49750233
-0.76085925
0.2608502
-1.0187658
-0.29491723
-0.63577795
-0.66958845
-0.59474635
-0.020944834
0.76754594
0.11917353
0.51931274
-0.19866252
0.5557786
-0.074199915
0.31352484
-0.15737236
0.36465514
0.94498074
0.65782535
0.8860154
-0.10308528
-0.4970654
-0.71452975
0.34523523
0.48789585
-0.55458194
-0.75010675
-0.3905888
-0.8019773
-0.158182
-0.14861059
-1.3613633
-1.3649406
0.5177196
0.56839454
-1.011621
0.92913926
0.13562578
0.6255301
-0.6063232
-0.35362163
0.32115602
0.5506805
-0.8328735
-0.32286128
0.3256711
-1.2243153
-0.51365525
-0.79931206
-0.28052038
-0.08718234
-0.33463866
-0.7630836
1.4980273
1.0615544
-0.117222846
0.9041907
-1.143153
1.289858
-0.9756136
1.2409235
-0.42305192
0.93882936
-0.88648325
-0.6327103
-0.4576973
-0.5574103
-0.14260256
-0.16162372
0.78152686
0.33625814
-0.99557465
-0.35449836
0.06630195
0.50657445
-0.5101932
0.31157696
0.5580467
-0.23381746
0.25425005
-0.65412927
0.7434952
-0.68905926
0.5313649
-0.5445478
0.6436559
0.5154089
-0.4879253
-1.0755008
0.3610462
-0.8492582
-0.37286973
-0.15927231
0.24253464
0.13583589
-0.20878816
0.58696365
0.7408329
-0.49743617
0.49067295
-0.0049734116
0.5118519
-0.33154875
0.11124374
-0.33155912
-0.7386756
0.011026889
-0.858617
-1.1936053
-1.4414991
0.020118475
-1.1209053
-0.57678115
-0.014773995
-0.49918723
0.46214044
-0.9273064
-1.0831139
-1.1943254
-0.5130132
-0.054072693
0.32431322
0.66439915
-0.47124383
-0.92759
-0.29166514
-0.39253098
-0.0717259
-0.14793396
0.6918205
-0.740524
0.23951535
-0.1455489
